svm_type c_svc
kernel_type linear
nr_class 2
total_sv 1807
rho 1.32288
label 1 0
nr_sv 500 1307
SV
1 318:1 1348:1 2194:1 3134:1 
0.4549733226936241 137:1 950:1 1093:1 1491:1 1639:3 2082:1 2151:1 2301:1 2521:1 3132:1 3377:1 3808:1 
1 826:1 1053:1 1386:1 1803:1 1954:1 1980:1 3340:1 3505:1 
1 3051:1 3446:1 
0.9362587380454298 18:1 110:1 132:2 364:1 500:1 558:1 633:1 754:1 965:2 1068:1 1287:2 1370:1 1515:1 1743:1 2669:1 2933:1 3327:1 3377:1 
1 3051:1 3446:1 
0.9080823356984007 541:1 698:1 721:1 893:2 1129:1 1658:2 1825:1 1987:1 2440:1 3095:1 3323:1 3522:1 3715:1 3744:1 3929:1 
1 171:1 562:1 982:1 1234:1 1416:1 1943:1 2048:1 2678:1 3380:1 3931:1 
1 326:1 2499:1 3238:1 
1 555:1 
1 654:1 1987:1 2059:1 
0.2118403310563504 231:1 256:1 646:1 716:2 1007:1 1228:1 1271:1 1287:1 1398:1 1825:1 1955:1 2545:1 2681:1 3006:1 3091:1 3208:1 3744:1 
0.9996017687980732 231:1 256:1 646:1 716:2 1007:1 1228:1 1271:1 1287:1 1398:1 1825:1 1955:1 2545:1 2681:1 3006:1 3091:1 3208:1 3744:1 
1 1949:1 3261:1 3383:1 
1 965:1 1955:1 2052:1 2454:1 
1 3780:1 
1 52:2 95:2 196:1 213:1 658:1 669:2 781:1 824:2 983:3 1039:1 1377:2 1868:1 2074:1 2383:1 2580:3 2602:2 3362:1 3385:1 3401:1 3551:1 3759:1 3762:1 3845:1 
1 391:1 1153:1 2095:1 2419:1 3742:1 
1 1212:1 1744:1 3486:1 3524:1 3793:1 
1 632:1 1146:1 3393:1 
0.5473891678881684 50:1 646:1 655:1 1299:1 1549:1 1682:1 1825:1 2885:1 3424:1 3505:1 
1 1160:1 1316:1 1386:1 1463:1 1521:1 1863:1 2050:1 2486:1 3264:1 3759:1 
0.6274144557079119 137:1 216:1 321:1 726:1 1743:1 1744:1 2151:1 2167:1 2268:1 2420:1 2487:1 2602:1 3420:1 
0.6907810205219785 556:1 1053:1 1108:1 1289:1 1482:2 1549:1 1613:1 1731:1 1868:1 1966:1 2212:1 2545:1 2575:1 3287:1 3741:1 3742:1 
1 643:1 1405:1 1463:1 1603:1 1853:1 2320:1 3099:1 3463:1 3742:1 3778:1 3794:1 
0.9860123985841126 556:1 1053:1 1108:1 1289:1 1482:2 1549:1 1613:1 1731:1 1868:1 1966:1 2212:1 2545:1 2575:1 3287:1 3741:1 3742:1 
1 1225:1 1600:1 2384:1 3522:1 
1 522:1 2043:1 
0.416807902432827 88:1 140:1 1299:1 1549:1 1825:1 2082:1 2263:1 2333:1 2847:2 2852:1 3063:1 3327:1 3383:1 3538:1 3551:1 3640:1 3706:1 3742:1 3744:1 3782:1 3886:1 
1 60:1 149:1 1965:1 2486:1 3029:1 3538:1 
1 372:1 556:1 1398:1 
1 
1 582:1 1148:1 1986:1 3551:2 
0.06741085012426559 416:1 556:2 654:1 711:1 1066:2 1192:1 1299:1 1377:1 1399:1 1463:1 1549:1 1708:1 1854:1 1899:2 1949:1 2043:1 2718:1 2819:1 2829:1 2847:1 3076:1 3377:1 3388:1 3413:1 3421:1 3524:1 3741:1 3742:1 3780:1 
1 279:1 1700:1 1949:1 
1 556:1 1007:1 1405:1 1811:1 3742:1 3793:1 
1 175:1 383:1 884:1 1147:1 1463:1 1623:1 1949:1 1980:1 3560:1 3742:1 
1 99:1 389:1 390:1 542:1 735:2 919:1 1316:1 2847:1 2910:1 3528:1 3633:1 3713:1 3886:1 
1 120:1 950:1 
1 1638:1 2082:1 3001:1 3029:1 3267:1 3780:1 
0.5105184160538258 542:1 556:1 1009:1 2180:1 2837:1 3501:1 3780:1 
1 981:1 1525:1 1776:1 2638:1 3551:1 
1 2048:1 3528:1 3665:1 
1 234:1 1065:1 1463:1 2990:1 
0.8435887697349604 950:1 1491:1 1712:1 1888:1 3120:1 3283:1 3778:1 
0.7710430631276112 175:1 340:1 446:1 449:1 752:1 887:1 950:1 1163:1 1451:1 1486:1 1496:1 1521:1 1613:1 1828:1 1868:1 1899:1 1931:1 1969:1 1980:1 2272:1 2602:1 2847:1 3401:1 3476:1 3551:1 3587:1 3625:1 3773:1 
0.1117062069309677 25:2 76:2 415:1 434:1 640:1 905:1 1007:1 1188:1 1428:1 1540:1 1780:1 1822:1 1895:1 1966:2 2053:1 2137:1 2520:1 2624:1 2739:1 3090:1 3095:1 3277:1 3327:1 3462:1 3693:1 3736:1 3786:2 
1 322:1 763:1 1949:1 1980:1 3353:1 
0.9365276706234548 350:1 556:1 580:1 654:1 1463:1 1825:1 2019:1 3029:1 3742:1 
1 1065:1 1825:1 3001:1 3684:1 3770:1 3882:1 
0.03008534869752093 542:1 654:1 711:1 973:1 1504:1 1522:1 1661:1 1825:1 1854:1 1868:1 1943:1 2082:1 2320:1 2351:1 2384:1 2433:1 2602:1 2609:1 2718:1 2837:1 2942:1 3063:1 3181:1 3292:1 3505:1 3538:1 3741:1 3744:1 3793:1 3886:1 3947:2 
1 234:1 296:1 805:1 1208:1 1438:1 1697:1 1714:1 2047:1 2048:1 3762:1 
0.5336655441571151 301:1 884:1 1079:1 1304:1 1610:1 1803:1 1825:1 1851:1 2322:1 2370:1 2458:1 2632:1 3134:1 3353:1 3393:2 3563:1 3745:1 3799:1 
1 1286:1 1988:1 2567:1 3001:1 3742:2 
1 1304:1 3134:1 3894:1 
0.151396706274722 192:1 485:1 542:2 689:1 690:1 828:1 1611:1 1936:1 2714:1 2910:1 3029:1 3244:1 3283:1 3610:1 3611:1 3615:1 
0.9605480687136305 192:1 485:1 542:2 689:1 690:1 828:1 1611:1 1936:1 2714:1 2910:1 3029:1 3244:1 3283:1 3610:1 3611:1 3615:1 
0.1631805922023031 7:1 192:1 261:1 389:1 485:1 542:2 689:1 690:1 828:1 1053:1 1611:1 1623:1 1704:1 1920:1 1936:1 2602:1 2714:1 2910:3 3029:1 3244:1 3283:1 3380:1 3522:1 3610:1 3611:1 3615:1 
0.2358962359093441 556:2 654:2 889:3 1066:1 1141:2 1195:1 2384:1 2837:2 2846:3 3194:2 3230:2 3380:1 3418:1 
1 1304:1 2925:1 
0.3252606474606389 611:1 994:1 1066:1 1401:1 1549:1 1955:1 3059:1 3126:1 
1 611:1 994:1 1066:1 1401:1 1549:1 1955:1 3059:1 3126:1 
0.9975012030232182 611:1 994:1 1066:1 1401:1 1549:1 1955:1 3059:1 3126:1 
0.2908941344861635 284:1 752:1 989:1 1262:1 1564:1 1602:1 1884:1 3261:1 3538:1 3758:1 
1 611:1 1963:1 2545:1 
0.9528470597396729 159:1 216:2 283:1 498:2 500:2 503:1 542:1 556:1 1376:1 1463:1 1542:3 1549:1 1570:1 1949:2 2018:1 2134:1 2290:1 2602:1 2834:1 3351:1 3383:1 3388:2 3417:1 3551:1 3615:1 3851:1 3947:1 
1 28:1 60:1 443:1 643:1 1075:1 1304:1 1949:1 2602:1 3134:1 3276:3 3413:1 3717:1 3768:1 3947:1 
0.464694354596367 192:1 542:1 556:1 711:1 1007:1 1053:1 1075:1 1463:1 1522:1 1949:1 2007:1 2702:1 3742:1 3793:1 
1 103:1 1463:1 1825:1 1851:1 
0.05623915681278984 296:1 553:1 554:1 643:1 686:1 711:1 1744:1 1812:1 2359:1 3141:1 3182:1 3325:1 3413:1 3522:1 3742:1 3886:1 
1 522:1 2602:1 3139:1 3802:1 
1 382:1 2081:1 3457:1 
1 1949:1 3310:1 
0.6670236321357628 391:2 643:1 1012:1 1313:1 1496:1 1756:1 2486:1 2571:1 2627:1 2744:1 3076:1 3742:1 
0.9397810188928186 137:1 542:1 1699:1 1743:1 1744:1 2262:1 2389:1 3075:1 3714:1 
1 1018:1 3785:1 3793:1 
1 60:1 912:1 1825:1 1931:1 
1 59:1 824:1 1491:1 1811:1 
0.1619442957211959 218:1 540:1 542:1 557:1 632:1 991:1 1549:1 2317:1 3742:2 
0.9973659136293006 218:1 540:1 542:1 557:1 632:1 991:1 1549:1 2317:1 3742:2 
1 752:3 1504:3 
0.2365386220733517 643:1 646:1 965:1 1287:1 1614:1 2202:1 
1 643:1 646:1 965:1 1287:1 1614:1 2202:1 
1 542:1 1399:1 3742:1 3751:1 
1 373:1 731:1 1386:1 1404:1 1463:1 2002:1 2007:1 2604:1 3551:1 3742:1 
0.3967699401000431 7:1 654:1 1031:1 1896:1 2332:1 2857:1 3474:1 3534:1 3538:1 3706:1 3742:2 3813:1 3947:1 
0.6556048883718812 643:1 646:1 965:1 1287:1 1614:1 2202:1 
1 1147:1 1304:1 1306:1 2322:1 2629:1 3134:1 
0.792791305550653 643:1 965:1 1287:1 1614:1 2202:1 3170:1 3799:1 
0.999044093449051 643:1 965:1 1287:1 1614:1 2202:1 3170:1 3799:1 
1 950:1 
0.4966284849216028 338:1 413:1 596:1 951:1 1399:1 1424:1 1803:1 1856:1 2007:1 3313:1 3334:1 3799:1 3884:1 
1 2414:1 3036:1 3744:1 3892:1 
1 89:1 1493:1 1661:1 2147:1 2665:2 3524:1 3741:1 3744:1 3793:1 
0.6013514029122969 1477:1 2414:1 3036:1 3744:1 3892:1 
1 1477:1 2414:1 3036:1 3744:1 3892:1 
0.9985791994909163 1477:1 2414:1 3036:1 3744:1 3892:1 
0.01762615666691345 17:1 343:2 556:1 605:1 643:1 654:1 1399:1 1411:1 1825:1 1868:1 1918:2 2087:1 2290:1 2341:1 2414:1 2433:1 2690:1 2880:1 3001:1 3287:1 3400:1 3474:1 3505:1 3588:1 
1 805:1 3077:1 3659:1 
1 747:1 1316:1 2770:1 2966:1 3232:1 
1 1825:2 1949:1 2502:1 2602:1 2942:1 3486:1 3759:1 
1 3033:1 
0.486814264651635 178:1 658:1 1190:1 1365:1 1707:1 1722:1 2602:1 2759:1 2837:1 2858:1 3329:1 3401:1 
1 486:1 950:1 1825:1 2869:1 
1 296:1 1949:1 2202:1 
0.1289703714035533 52:1 227:2 416:1 731:1 1034:1 1558:1 1584:1 1825:1 1854:1 1886:3 1949:1 2236:1 2609:1 2734:1 3185:1 3223:2 3438:1 3587:2 3647:1 3945:1 
0.1442370460008748 28:1 461:1 646:1 835:2 973:1 1193:1 1254:1 1397:2 1399:1 1825:1 1868:1 1949:1 1980:1 2007:1 2043:1 2258:1 2320:1 2327:2 2338:1 2602:2 2609:1 2715:2 2734:1 2749:1 2826:1 2837:2 3170:1 3388:1 3505:1 3633:1 3799:1 3886:1 3902:1 3947:1 
1 1103:1 3383:1 3665:1 
0.6447413990820615 26:2 243:1 510:1 685:1 889:1 1163:1 1214:2 1424:1 1496:1 1868:1 2546:1 2683:1 2847:1 2855:1 3715:1 3726:1 3884:1 3929:1 3947:1 
1 1394:1 1958:1 2602:1 3071:1 3174:1 3442:1 3538:1 
1 223:1 1371:1 
1 2306:1 2414:1 3036:1 3744:1 3892:1 
1 2414:1 3036:1 3744:1 3892:1 
1 499:1 745:1 1668:1 2547:1 3099:1 3126:1 3898:1 
1 2414:1 3036:1 3744:1 3892:1 
1 542:1 1095:1 1661:1 3388:2 
1 542:1 1095:1 1661:1 3388:2 
1 1044:1 3134:1 3793:1 
1 542:1 556:1 1328:1 
1 55:1 98:1 99:1 168:1 482:2 950:1 1066:1 1090:1 1260:4 2403:1 2840:1 2923:2 3273:1 3380:1 3886:2 3927:1 
1 
1 1586:1 3742:1 
0.5875876338012629 1287:1 2043:1 2180:1 2587:1 3742:1 3780:1 3793:2 
0.05623126233797065 296:1 553:1 554:1 643:1 686:1 711:1 1744:1 1871:1 2359:1 3141:1 3182:1 3325:1 3413:1 3522:1 3742:1 3886:1 
1 218:1 3197:1 3793:1 3898:1 
1 218:1 3197:1 3793:1 3898:1 
1 218:1 3197:1 3793:1 3898:1 
1 429:1 556:1 601:1 1009:1 1584:1 1980:1 2185:1 2333:1 2427:1 3565:1 3677:1 3741:1 3947:1 
1 177:1 2142:1 2297:1 3380:1 3524:1 
1 950:1 1176:1 1467:1 1785:2 1868:1 3029:1 3077:1 
0.1855821750576236 345:1 418:2 641:1 1478:3 1542:2 1855:1 1949:1 2658:2 2847:1 2860:1 3647:1 3780:1 
1 356:1 403:1 3538:1 3780:1 
0.9986713984193955 187:2 296:1 389:1 690:1 824:1 1318:1 1328:1 1546:1 1603:1 1676:1 2096:1 2339:1 2655:1 3435:1 3640:1 
1 747:1 
1 567:1 826:1 1756:1 1988:1 2774:1 3524:1 
1 541:1 1463:1 1520:1 1825:1 1949:1 2841:1 3524:1 3640:1 3706:1 3742:1 
0.5957746547555847 289:1 308:1 792:1 1167:1 1493:1 1811:1 1943:3 2077:1 2082:1 2840:1 3029:1 3120:1 3780:1 
1 2109:1 
0.001952344888307648 542:1 611:1 737:1 1399:1 1424:1 1463:2 1542:1 1665:1 1763:1 1949:1 1955:1 2003:1 2082:1 2290:1 2439:1 2847:1 3377:1 3383:1 3388:1 3505:1 3741:1 
1 267:1 1148:1 1299:1 1542:1 1825:1 3327:1 3640:1 3717:1 
1 591:1 1193:1 1401:1 2018:1 2378:1 2715:1 3659:1 
0.1505426688966195 282:1 542:1 611:1 654:1 737:1 872:1 947:1 1825:1 1943:1 2050:2 2600:1 2680:1 3063:1 3313:1 3328:1 3538:1 3686:1 3809:1 3882:1 
1 322:1 836:1 993:2 1304:2 1386:2 1463:1 1793:1 3156:1 3259:1 
0.104575131316115 542:1 556:1 1260:1 1287:1 1316:1 2051:1 2230:1 2652:1 3898:1 
0.3505154369635244 542:1 556:1 711:1 1260:1 1287:1 1463:1 2051:1 2311:1 2652:1 2847:1 3780:1 
1 1374:1 3793:1 
1 308:1 654:1 655:1 1766:1 2262:1 2290:1 3486:1 3524:1 3568:1 
0.3706123051448185 296:1 383:1 553:1 554:1 643:1 1750:1 3141:1 3182:1 3340:1 3522:1 3524:1 3742:2 3886:1 
1 542:1 1444:1 3505:1 3599:1 3793:1 
1 3935:1 
1 887:1 1137:1 1546:1 
0.1150698156459823 26:1 502:1 542:2 556:1 654:2 655:1 950:2 1000:1 1126:1 1440:1 1542:1 1725:1 2043:1 2082:1 2115:2 2139:1 2233:2 2320:1 2412:1 2837:1 2909:1 3224:1 3388:1 3551:1 3572:1 3615:1 3886:1 3895:1 
1 1966:1 
1 259:1 984:1 989:1 
1 3538:1 
1 921:1 1659:1 2617:1 2675:1 
1 409:1 654:1 1176:1 1949:1 2048:1 
1 763:1 1304:1 
1 218:1 2073:1 2942:1 3267:1 3902:1 3905:1 
0.06101773213174697 59:1 542:1 556:1 824:1 984:1 1486:1 1549:1 1949:1 2290:1 2426:1 2690:1 3327:1 3486:1 3505:1 3742:1 3947:1 
0.269383768224062 219:1 436:2 478:1 502:1 542:1 654:1 655:1 824:1 905:1 1141:1 1539:1 1868:1 2007:1 2040:1 2043:1 2142:2 2317:1 2333:1 2334:1 2412:1 2690:1 2837:1 3089:1 3170:1 3287:1 3383:1 3388:1 3522:1 3745:1 3812:1 
1 125:1 754:1 1733:1 1868:1 1931:1 2217:1 3742:1 3755:1 
1 125:1 754:1 1733:1 1868:1 1931:1 2217:1 3742:1 3755:1 
0.1634227934616382 719:1 890:1 1146:1 1257:1 1304:1 1307:1 1349:1 1825:1 2142:1 2602:1 2629:1 2652:1 2925:1 2998:1 3134:2 3741:2 3923:3 3927:1 3939:2 3947:1 
0.804168307459781 643:1 649:1 1287:1 1614:1 2202:1 
0.2490853682425122 313:2 504:1 824:2 940:1 1160:1 1193:1 2001:1 2005:1 2486:1 2652:2 2874:1 2920:1 3114:3 3259:1 3333:1 3499:1 3812:2 
1 1104:1 1863:1 2321:1 
0.754100277535299 248:1 989:2 1733:1 3063:1 3488:1 3660:1 3715:1 
1 1988:1 2970:1 3818:1 
1 125:1 1733:2 1868:1 1931:1 2043:1 2217:1 3742:1 3755:1 3780:1 
1 125:1 1733:2 1868:1 1931:1 2043:1 2217:1 3742:1 3755:1 3780:1 
1 938:1 950:1 2007:1 2057:1 2082:1 3524:1 3568:1 3577:1 
1 307:1 486:1 1436:1 1826:1 1848:1 
1 1988:3 2029:1 2414:1 3253:1 3551:3 
0.2855368093029658 542:1 1187:1 1336:1 1444:1 2203:1 2295:1 2962:1 3560:1 3742:1 3793:1 3914:1 
1 149:1 851:1 950:1 1463:1 2683:1 2847:1 3683:1 
1 3599:1 3793:1 
1 542:1 1187:1 1336:1 1444:1 2203:1 2295:1 2962:1 3560:1 3742:1 3793:1 3914:1 
1 
1 301:1 654:1 1193:1 1348:1 1603:1 1718:1 2043:1 3538:2 
0.9979169903476498 285:1 392:1 1018:1 1899:1 1900:1 2183:1 2640:2 2837:1 3169:1 3290:1 3793:1 3939:1 
1 739:1 
1 301:1 428:1 1504:1 1825:1 2602:1 3353:1 
0.1822752711159664 214:1 591:1 654:1 1212:1 1463:1 1542:1 1549:1 1931:1 2043:1 2602:1 2652:1 2690:1 3388:1 3474:1 3505:1 3538:1 3742:1 3780:1 
1 301:1 1851:1 2043:1 2641:1 3886:1 
1 
1 99:1 390:1 950:2 1980:1 2120:1 3277:1 3283:1 3524:1 3683:1 3742:1 
1 1486:1 2554:1 
1 542:1 556:1 1539:1 2077:1 2837:1 3486:1 3524:1 3538:1 3640:1 
1 40:1 1834:1 
1 
0.1345005018156709 13:1 208:1 299:2 542:1 556:1 742:1 818:1 1686:1 1700:1 1897:1 2154:1 2412:1 2553:1 2885:1 
0.06632226870941836 350:1 556:1 580:1 654:1 1463:1 1825:1 2019:1 2320:1 3486:1 3742:2 
0.6916663959376936 18:1 542:3 556:1 654:1 698:1 699:1 894:1 1182:1 1334:1 1623:1 1825:2 1888:1 1988:2 2290:1 2602:2 2734:1 2812:1 3370:1 3377:1 3388:1 3491:1 3524:1 3538:1 3640:1 3742:3 3744:1 3847:1 3947:3 
1 461:1 727:1 1482:1 2825:1 2908:1 
1 3033:1 
1 
1 1065:1 2464:1 2734:1 3029:2 3283:1 3683:1 
1 576:1 1542:2 2043:1 
0.22868362182647 973:1 1603:1 1868:1 1949:1 2137:1 2217:1 2218:1 2384:2 2486:1 2574:1 2609:1 2623:1 2652:1 2847:1 3261:1 3902:1 3929:1 3947:1 
0.9929205000002773 289:1 461:1 542:1 646:1 654:1 973:2 1064:1 1334:1 1337:1 1542:3 1603:1 1868:1 2043:2 2082:1 2225:1 2320:1 2327:1 2384:1 2412:1 2701:1 2847:1 3207:1 3256:1 3327:1 3375:1 3515:1 3524:1 3538:1 3633:1 3742:1 3886:1 3929:1 3947:2 
0.5401753907056887 447:3 1370:1 1627:1 1690:1 
1 950:1 1943:1 3625:1 
1 196:1 654:1 950:1 1334:1 1603:1 1682:1 1766:1 1868:2 1931:1 2043:2 2142:1 2327:1 2652:1 2690:1 2837:1 3045:1 3203:1 3327:1 3505:1 3742:2 3793:1 
1 252:1 646:1 1758:1 1868:1 1949:1 2142:1 2403:1 2454:1 3104:1 3355:1 3486:1 3524:1 3744:1 3770:1 
0.7330895707364352 818:1 1463:1 2420:1 2583:1 2602:1 2885:1 3006:1 3161:1 3904:1 
1 556:1 741:1 
1 654:1 2837:1 3538:1 3742:1 3793:1 
0.001557250327614707 32:1 381:1 542:1 556:1 654:1 1299:1 1440:2 1542:1 2043:1 2142:1 2255:1 2263:1 2310:1 2410:1 2699:1 3150:1 3383:1 3388:1 3491:1 3741:1 
0.3644702150368321 542:1 989:1 1096:1 2393:1 3389:1 
0.9976378912014008 542:1 989:1 1096:1 2393:1 3389:1 
0.3885344481106632 599:1 1219:1 1351:2 1549:1 1766:1 1825:1 1988:1 2087:1 2147:1 2217:1 2349:1 3123:1 3261:1 3505:1 3742:1 
0.98890402272847 599:1 1219:1 1351:2 1549:1 1766:1 1825:1 1988:1 2087:1 2147:1 2217:1 2349:1 3123:1 3261:1 3505:1 3742:1 
1 607:1 1401:1 1825:1 1896:1 1988:1 2627:1 2942:1 3168:1 3290:1 3524:1 3927:1 3929:1 
1 289:1 754:1 941:1 1261:1 1686:1 1825:1 1851:1 1977:1 2833:1 3148:1 3338:1 3886:1 
0.1958514588083237 312:1 605:1 1110:1 1227:1 1399:1 1463:1 1584:1 1868:2 2007:1 2156:1 2539:1 3168:1 3298:2 3505:1 3528:1 3538:1 3780:1 3921:1 
1 1949:1 2150:1 2420:1 3793:1 
0.05948990609089707 542:1 810:1 1943:1 1988:1 2840:1 
1 542:1 810:1 1943:1 1988:1 2840:1 
1 259:1 503:1 981:1 1949:1 1953:1 1979:1 
0.3849283689849077 296:1 1020:1 1105:1 1120:1 1463:1 1484:1 1539:1 1542:1 1603:1 2043:1 2142:1 2165:1 2210:1 2652:1 2847:1 3093:2 3505:1 3551:1 3780:1 
0.9954711441913922 542:1 810:1 1943:1 1988:1 2840:1 
1 
0.3579243465335286 308:1 365:1 542:1 556:1 789:1 1118:1 1408:1 1699:1 1949:1 1980:1 2664:1 2708:1 2718:2 2847:1 3524:1 3554:1 3812:1 
1 234:1 301:1 661:1 2168:1 3783:1 
0.288391826662741 538:3 654:2 792:1 950:1 1549:1 1825:1 2602:1 2665:1 3095:2 3720:1 3742:1 3793:2 
0.9910943450290022 132:1 309:1 618:1 950:1 1041:1 1175:1 1743:1 1744:1 2205:1 2873:1 3715:1 3762:1 3847:1 
1 25:1 218:1 542:1 1028:1 1285:1 1868:1 1931:1 2043:1 3223:1 3524:1 3541:1 3742:1 
0.2397334615903632 125:1 542:1 643:1 654:1 716:1 940:1 950:1 1023:3 1260:1 1380:1 1399:1 1405:1 1661:1 1825:2 1918:1 1976:1 2043:1 2077:1 2540:1 2575:1 2686:1 3475:1 3672:3 3741:1 3884:3 
1 301:1 542:1 748:1 1078:1 1576:1 1924:1 1949:1 2142:1 2185:1 2202:1 2609:1 2829:1 3075:1 3089:1 3268:1 3524:1 3615:1 3799:2 
1 1513:1 
1 
1 973:1 1966:1 
1 6:1 1170:1 2007:1 2623:2 2652:1 
1 24:1 611:1 643:1 3659:1 3762:2 3780:1 3838:1 3886:1 
0.553257663693507 301:1 403:1 671:1 803:1 884:1 950:1 1141:1 1147:1 1306:1 1546:1 1661:1 1678:1 1965:1 2074:1 3029:1 3102:1 3393:1 3615:1 
0.1302806559409859 6:2 32:1 169:1 296:1 1334:1 1444:1 1463:1 1661:1 1849:1 2107:2 2198:1 2215:1 2825:4 2961:1 3325:1 3362:1 3773:1 3780:3 
0.6568506997214316 542:1 556:1 1287:1 1733:1 3388:1 
0.9880000097359819 542:1 556:1 1287:1 1733:1 3388:1 
0.1162888042196626 119:1 201:1 296:1 515:1 654:1 1348:1 1397:1 1463:1 1809:1 1825:2 1868:1 1915:1 1949:1 2003:3 2036:1 2082:3 2327:1 2334:1 2393:1 2457:1 2602:1 2673:2 2742:1 2847:2 2877:1 3327:1 3391:1 3417:1 3538:1 3582:1 3600:1 3601:1 3615:1 3647:1 3715:1 3742:1 
1 358:1 890:1 2082:1 2174:1 3099:1 
0.2304904229578445 24:1 71:1 245:1 308:1 611:1 643:2 824:1 1041:1 2205:1 2233:1 2320:1 2938:1 3274:1 3551:1 3762:4 3780:1 3887:2 
1 824:1 1238:1 3474:1 
1 1478:1 2007:1 
0.0917855671779261 13:1 134:1 218:1 490:1 522:1 541:1 556:1 567:1 608:1 633:1 711:1 916:1 947:1 1227:1 1399:1 1909:1 1943:1 2777:1 2779:1 2832:1 3381:1 3409:1 3480:1 3715:1 3796:2 
0.601017636695556 556:1 1316:1 1463:1 1980:1 2847:1 3709:1 3793:1 3912:1 
1 502:1 950:1 1216:2 1679:1 1862:1 2007:1 
1 639:1 1463:1 1949:1 1980:1 1988:1 3929:1 
1 1075:1 1931:2 2290:1 2500:1 2582:1 2652:2 3063:1 3551:1 3599:1 3647:1 3742:1 3761:1 3793:1 3849:1 
0.2038172720028943 18:1 1661:1 3383:2 3741:1 3793:1 
1 18:1 1661:1 3383:2 3741:1 3793:1 
1 24:1 643:1 1546:1 1825:1 1949:1 3615:1 3717:1 3947:1 
1 1304:2 1503:1 1932:1 1988:1 3127:1 
1 932:1 1153:1 1211:1 1304:1 1349:1 1896:1 1949:1 2058:1 2185:1 2602:2 2847:1 2883:1 3245:1 3905:1 3929:1 
0.5281606347664819 88:1 326:1 424:1 950:1 1504:1 2184:1 2499:1 2665:2 3793:2 3884:1 
1 252:1 1212:1 1521:1 1746:1 3355:1 3633:1 
0.2506667519223319 321:1 542:1 556:1 1316:1 1424:2 1949:1 2043:1 2447:1 3142:1 3383:1 3615:1 3717:1 3742:1 3812:1 3815:1 
1 1187:1 1336:1 1444:1 3560:1 3599:1 3742:1 3793:1 
1 542:1 556:1 1336:1 2662:1 2690:1 
1 887:1 3029:1 3522:1 
1 3353:1 
0.03000746091409492 111:1 321:1 343:1 1331:1 1616:1 1744:1 2164:1 2292:1 2619:1 3704:1 
1 
0.7795743181227346 296:1 657:1 1334:1 1918:1 1949:1 2439:1 2666:1 3383:1 3742:1 3793:1 3955:1 
1 
0.9972997231271177 296:1 657:1 1334:1 1918:1 1949:1 2439:1 2666:1 3383:1 3742:1 3793:1 3955:1 
1 585:1 887:1 1304:1 1468:1 
1 3538:1 3745:1 
1 403:1 486:1 1786:1 1980:1 3193:1 
0.7384013705264714 182:1 373:2 443:1 950:1 1334:2 1444:1 1949:2 1965:1 2050:1 2290:1 2486:2 2641:1 2652:3 3029:1 3524:1 3570:3 3633:1 3840:1 3844:1 3929:2 
1 
1 
1 
1 
1 218:1 1988:1 3770:1 3898:1 
0.9998645993672042 111:1 321:1 343:1 1331:1 1616:1 1744:1 2164:1 2292:1 2619:1 3704:1 
1 556:1 1192:1 2412:1 3267:1 3276:1 
1 176:2 759:2 2317:1 2384:1 3133:1 3540:1 
1 3393:1 
1 1825:1 3742:1 3793:1 
0.2673842374195164 830:1 941:1 1438:1 1607:1 1685:1 1848:1 2250:1 2414:1 2514:1 3000:1 3158:1 3742:1 
1 830:1 941:1 1438:1 1607:1 1685:1 1848:1 2250:1 2414:1 2514:1 3000:1 3158:1 3742:1 
1 224:1 654:1 1603:1 1825:1 1868:1 2602:1 3344:1 3353:1 3538:1 
0.6156502978540881 88:2 196:1 542:1 654:1 887:1 921:1 1868:1 1949:1 1971:1 1988:1 2007:1 2082:2 2586:1 3174:1 3388:1 3551:1 3872:1 
0.7294760208225256 1124:1 1303:1 1451:1 1949:1 2142:1 2344:1 2350:1 2840:1 3562:2 3742:1 3770:1 
0.5607746101033675 6:2 32:1 169:1 296:1 1334:1 1444:1 1463:1 1661:1 1849:1 2107:2 2198:1 2215:1 2825:4 2961:1 3325:1 3362:1 3773:1 3780:3 
1 1210:1 
1 1127:1 1137:1 1304:1 1825:1 2774:1 3780:1 
1 301:1 318:1 756:1 818:1 1334:1 1444:1 2442:1 2582:1 2885:1 2961:1 3292:1 3799:1 
1 326:1 1388:1 2043:1 3517:1 3869:1 
1 921:1 1949:1 3538:1 3745:1 
1 119:1 157:1 352:1 2327:1 2338:1 2437:1 2860:1 2971:1 3327:1 
1 1397:1 1607:1 1942:1 
1 646:1 681:1 825:1 1825:1 2961:1 
1 117:1 1942:1 
1 1437:1 1906:1 2717:1 
1 322:1 654:1 2151:1 2499:1 
1 322:1 654:1 2151:1 2499:1 
1 3261:1 3356:1 
1 187:1 548:1 1278:1 1616:1 1966:1 1968:1 2030:1 2230:1 2385:1 2414:1 2420:1 2747:1 3058:1 3361:1 3938:1 
1 1336:1 1349:1 1417:1 1825:1 1949:1 2082:1 2142:1 2652:1 2925:1 3168:1 3939:1 
1 
1 218:1 
1 
1 28:1 478:1 570:1 1463:1 3464:1 
1 127:1 273:1 2082:1 3134:1 
1 259:1 514:1 941:1 2004:1 3048:1 
1 372:1 
1 
1 
1 3033:1 3296:1 
1 
0.02069162388139963 654:1 1578:1 1949:1 3128:1 3615:1 
1 654:1 1578:1 1949:1 3128:1 3615:1 
1 654:1 1578:1 1949:1 3128:1 3615:1 
0.2453490700645785 468:1 506:1 654:1 950:1 1321:1 1393:1 1444:2 1825:1 1868:1 1949:1 1997:1 2384:1 2710:1 3538:1 3731:1 3869:1 
1 328:1 1696:1 2003:1 2111:1 2897:1 
1 654:1 1578:1 1949:1 3128:1 3615:1 
1 654:1 1578:1 1949:1 3128:1 3615:1 
1 60:1 
1 1140:1 1463:1 2690:1 2707:1 3099:1 3427:1 3742:1 
0.0796855304947213 140:1 542:1 556:1 646:1 1170:1 1192:1 1931:1 2043:2 2077:1 2142:1 2290:1 2602:1 2652:1 2689:1 3089:1 3327:1 3383:1 3741:2 
0.04971047671636677 196:1 296:1 319:2 357:2 646:1 870:1 1163:1 1188:1 1425:1 1542:1 1555:1 1595:1 1931:3 2217:1 2264:1 2341:2 2368:1 2384:2 2420:1 2575:1 2713:1 2798:1 3175:1 3742:3 3744:1 3793:1 3866:1 3947:1 
0.3533877858082932 49:1 171:1 646:1 654:1 660:1 973:1 1407:1 1542:1 1549:1 1949:2 2064:1 2110:1 2115:1 2393:1 2403:1 2602:1 2857:3 2985:1 3113:1 3388:1 3421:1 3538:2 3633:1 3674:1 3847:2 3882:1 3886:2 3947:1 
1 109:1 308:2 310:1 321:1 416:1 599:1 828:1 890:1 946:1 1053:1 1334:1 1444:1 1568:1 1653:1 1686:1 1699:1 1825:1 1949:1 2180:2 2652:1 2758:1 2833:1 2928:1 2961:1 2983:1 3008:1 3551:1 3780:1 
1 240:1 499:1 547:1 692:1 737:1 739:1 787:1 893:1 1334:2 1341:2 1355:1 1412:1 1449:1 1699:1 1913:1 1933:1 2135:1 2165:1 2166:2 2210:1 2243:1 2290:1 2655:1 2871:1 2926:1 3095:1 3312:1 3325:1 3355:1 3377:1 3452:1 3551:1 3780:1 3781:1 
1 884:1 1986:1 2323:1 3393:1 3780:1 
1 98:1 131:1 1272:1 1304:1 1397:1 1655:1 1888:1 1942:1 2491:1 2675:1 3653:1 3780:1 
0.4852042502856677 144:1 1334:1 2885:1 3158:1 3641:1 3724:1 3933:1 
1 33:1 803:1 3599:1 
1 32:1 654:1 1334:1 2107:1 2825:1 2961:1 3538:1 
1 228:1 783:1 1825:2 2725:1 3119:1 3262:1 
1 556:1 1463:1 1825:1 2142:1 2272:1 3089:1 3706:1 3742:1 3745:1 
1 2885:1 
0.8627277450474263 418:1 634:1 779:1 1022:1 1250:1 1960:1 3393:1 3472:1 
0.3180287404620528 377:1 382:1 522:2 608:2 679:1 730:1 824:1 900:2 950:1 1095:1 1299:2 1374:1 1396:1 1488:1 1549:1 1617:1 1929:1 2172:2 2652:1 2669:1 2970:2 3179:2 3180:1 3377:2 3524:1 3715:1 3799:1 3876:2 
1 542:1 556:1 950:1 1217:1 2139:1 
1 320:1 2759:1 
1 386:1 1860:1 2734:1 
0.9455469379366014 344:1 643:1 1018:1 1519:1 2545:1 3816:1 
0.5121271136977523 542:1 556:1 646:2 1125:1 1306:1 1549:1 2194:1 2857:1 2937:1 2972:1 3742:1 3793:1 
1 803:1 1388:1 1405:1 1496:1 2804:1 
1 218:1 
1 2602:1 
1 947:1 2587:1 3935:1 
1 1304:1 1316:1 3266:1 
0.8848800691721198 218:1 542:1 556:2 784:1 1334:1 1424:1 1463:1 1542:1 1549:1 2290:1 2689:1 3388:1 3599:2 
1 667:1 758:1 1137:2 1546:2 1834:1 1949:1 2381:1 2467:1 3362:1 3775:1 
1 1868:1 2082:1 
1 654:1 1578:1 1949:1 3128:1 3615:1 
1 365:1 654:1 3130:1 3551:1 
1 2942:1 3330:1 
1 18:1 1661:1 3383:2 3741:1 3793:1 
1 18:1 1661:1 3383:2 3741:1 3793:1 
0.1863803217245177 289:1 599:1 646:2 659:1 874:1 1178:1 1504:1 1537:1 1595:1 1757:1 1793:2 1806:1 1943:3 1999:1 2007:1 2020:1 2292:2 2467:2 2760:1 2791:1 2840:1 2905:1 3001:2 3091:1 3524:1 3548:1 3886:1 
0.1769574065847789 70:1 542:1 646:1 889:1 1010:1 1021:1 1343:1 1386:2 1401:1 1521:1 1550:1 1825:1 1988:1 2327:1 2602:2 2627:1 2669:1 2840:1 3029:1 3486:1 3522:1 3633:1 3715:1 3742:1 3797:1 3905:1 
0.6712373736815906 500:1 542:1 556:1 646:1 699:1 1376:1 2669:1 2766:1 
1 1382:1 1454:1 1810:1 2007:1 3522:1 3812:1 
1 1401:1 2050:1 
1 140:1 2847:1 3505:1 
0.8402504372370393 542:1 556:1 1030:1 2003:1 2043:1 2142:1 2426:1 3742:1 3913:1 
1 556:1 646:1 1334:1 1564:1 1602:1 2690:1 2937:1 2972:1 3742:1 3947:1 
0.06424420923432807 522:1 542:1 556:1 1193:1 1463:1 1511:1 1549:1 2003:1 3383:1 3505:1 3884:1 
1 1848:1 2840:1 
1 18:1 1661:1 3383:2 3741:1 3793:1 
1 1304:1 
1 423:1 1825:1 2116:1 2825:1 2904:1 
1 1287:1 3780:1 
1 3780:1 
1 542:1 556:1 711:1 1424:1 1988:1 2837:1 3505:1 3742:1 
1 186:1 1304:3 1796:1 2000:1 3156:1 
1 77:1 275:1 589:1 1023:1 1107:1 1603:1 3271:1 3287:1 3576:1 3793:1 
1 556:1 865:1 3452:1 3636:1 
0.3020484973605504 542:1 556:1 2210:1 3774:1 
1 248:1 921:1 1831:1 1853:1 2059:1 3144:1 
1 544:1 607:1 1214:1 2040:1 2050:1 2077:1 3283:2 3925:1 
1 592:1 1517:1 1949:1 2652:1 3036:1 3064:1 3114:1 3261:1 
0.415112014048318 75:1 542:1 556:1 1971:1 2922:1 3279:1 3341:1 3380:1 3505:1 3522:1 3742:1 3872:1 
0.9905896994781744 75:1 542:1 556:1 1971:1 2922:1 3279:1 3341:1 3380:1 3505:1 3522:1 3742:1 3872:1 
1 476:1 1770:1 1949:1 1988:1 2124:1 3528:1 3539:1 
1 1146:1 1728:1 1988:1 2545:1 2643:1 
1 789:1 908:1 1132:1 1316:1 1374:1 1405:1 1424:1 2026:1 2317:1 2847:1 3174:1 3759:1 3948:1 
1 3780:1 
0.05918527491849614 18:1 80:1 244:1 542:1 556:2 1138:1 1549:1 1764:1 1949:1 2050:1 3505:1 3680:1 3780:1 3947:1 
1 1299:1 3134:1 
1 1299:1 3134:1 
1 1299:1 3134:1 
1 1299:1 3134:1 
1 941:1 2048:1 2652:1 3380:1 
1 1299:1 3134:1 
1 1803:1 1868:1 2359:1 3340:1 3524:1 3882:1 3898:3 
1 1299:1 3134:1 
0.1958079770098154 120:1 275:1 853:2 887:1 1065:1 1374:1 1868:1 2043:2 2077:1 2127:1 2384:1 2604:1 2615:1 3483:1 3538:1 3649:2 3742:1 3852:2 
1 556:1 1766:1 1825:1 1931:1 2142:1 2652:1 3327:1 
1 1299:1 3134:1 
1 18:1 1661:1 3383:2 
1 3780:1 
1 1304:1 1373:1 1496:1 
1 1093:1 1313:1 1386:1 1851:1 1854:1 1949:1 2032:1 2404:1 
0.03863177191386225 49:1 289:1 308:1 542:1 556:1 632:1 950:1 1066:1 1078:1 1921:1 2043:1 2174:1 2184:1 2207:1 2829:1 3267:1 3706:1 3742:2 3780:1 3812:1 3884:1 
0.2421687350787717 357:1 556:1 1884:1 2710:1 2824:1 3477:1 3815:1 3886:1 
1 1397:1 1424:1 
0.9984817803039544 357:1 556:1 1884:1 2710:1 2824:1 3477:1 3815:1 3886:1 
1 140:1 462:1 542:2 868:1 944:1 965:1 1018:1 1424:1 1504:1 1520:1 1549:1 1766:2 1949:2 1955:1 1963:2 2007:1 2180:1 2217:2 2545:1 2629:1 2641:1 2985:1 3075:1 3261:2 3276:1 3505:1 3706:1 3742:1 3780:2 3818:1 
1 1304:1 
0.4285550114810956 486:1 1796:1 1797:1 3846:1 
0.3434139391777293 486:1 1358:1 1796:1 1797:1 3846:1 
1 1316:1 
1 1405:1 1825:1 2356:1 3192:1 3948:1 
1 90:1 654:1 1578:1 2715:1 3538:1 3770:1 
1 646:1 
0.7312725666782305 147:1 305:1 744:2 938:1 940:2 1386:1 1546:1 1590:2 1658:1 1825:2 1949:2 2007:3 2043:1 2563:1 2602:3 3029:2 3524:1 3935:1 
1 780:1 818:1 1463:1 1980:1 1988:1 2053:1 2077:1 2269:1 2582:1 2885:1 3006:1 3029:1 3161:1 3538:1 
0.0643225851419721 23:1 542:1 556:1 1012:1 2184:1 2317:1 3239:1 3505:1 
1 296:1 1334:1 3929:1 
1 556:1 878:1 1745:2 2164:1 2288:1 3742:1 3842:1 
1 1985:1 2007:1 3029:1 
1 585:1 1858:1 2174:1 3323:1 3702:1 
1 654:1 754:1 1949:1 2478:1 2925:1 3393:1 3742:1 3793:1 3939:2 
1 1018:1 1825:1 
1 634:1 779:1 1379:1 2037:1 
1 18:1 1661:1 3383:2 3741:1 3793:1 
1 3780:1 
0.1141300177190123 282:1 542:1 611:2 654:1 737:4 824:1 835:1 872:1 947:1 1076:1 1256:1 1399:1 1825:4 1943:1 2050:1 2081:1 2272:1 2320:1 2393:1 2419:1 2600:1 2602:1 2680:1 3032:1 3063:2 3276:1 3292:1 3313:1 3372:1 3538:1 3791:1 3809:1 3882:1 
1 313:1 586:1 921:1 1260:1 1334:1 1440:1 1825:1 2002:1 2464:1 2579:1 3004:1 3114:1 3259:1 3417:1 
0.3844513116026641 1313:1 1334:1 1405:4 1592:1 1868:1 2180:1 2272:1 2320:1 2440:4 2443:1 2602:1 3780:1 3816:1 
0.5348274203147863 6:1 25:1 32:3 169:1 177:1 608:1 1444:1 1849:1 2107:2 2120:1 2198:1 2428:1 2491:1 2825:1 2961:1 3780:1 
0.4227544196038574 171:1 1254:1 1949:1 2007:1 3377:1 3517:1 3652:1 3657:1 3943:1 
1 2043:1 2180:1 3947:1 
0.5206250252205104 140:1 1382:1 1463:1 1542:1 2003:1 2064:1 2082:1 2834:1 3388:1 3640:1 
1 1387:1 1825:1 1949:1 2849:1 
1 175:1 1552:1 1980:2 
1 3270:1 
1 2048:1 3181:1 3380:1 3793:1 
0.4896339548513149 542:2 556:1 1334:1 1542:1 3068:1 3223:1 3780:1 
0.07980426036532688 322:1 415:1 463:1 542:1 632:1 690:1 711:1 1147:1 1187:1 1386:1 1542:1 1926:1 1949:2 2272:3 2732:2 2847:1 3239:1 3358:1 3383:2 3388:1 3484:1 3742:1 3793:1 
1 99:1 522:1 1463:1 3134:1 3417:1 3457:1 
1 599:1 940:1 1896:1 1988:1 2486:1 3095:1 3421:1 3570:3 3599:1 3734:1 3740:1 3929:1 
1 5:1 352:1 438:1 830:1 1617:1 3157:1 
1 311:1 366:1 542:1 638:1 650:1 1542:1 3793:1 3884:1 3929:1 3947:1 
1 3029:1 
1 2050:1 2202:1 3770:1 
1 171:1 1254:1 1949:1 2007:1 3377:1 3517:1 3652:1 3657:1 3943:1 
1 499:1 950:1 1122:1 1153:1 1570:1 1825:1 1949:1 3524:2 3849:1 
1 556:1 1316:1 2290:1 2824:1 3742:1 
0.5051358690493809 544:1 607:1 851:1 2221:1 2238:1 3305:1 3570:1 
1 2168:1 3780:1 3783:1 
1 549:1 938:1 1399:1 1648:1 1681:1 2847:1 
0.5810280578239404 261:1 382:1 709:1 1176:2 1397:1 1546:1 1640:1 2487:1 2755:1 3005:1 3259:1 
1 818:1 826:1 1141:1 1334:1 1551:1 2251:1 2345:1 2364:1 2420:1 2433:1 2734:2 2860:1 2885:1 2886:2 3006:1 3158:1 3161:1 
0.2530633814855983 25:1 60:2 195:3 288:1 289:1 702:1 704:1 828:1 950:2 1096:1 1227:1 1288:1 2590:1 2602:1 2890:1 2984:3 3040:1 3144:1 3882:1 3886:1 
0.305225171865676 662:1 1187:1 1399:1 1682:1 2007:1 2116:2 2502:1 3072:1 3191:1 3388:1 3560:1 3615:1 3742:2 3793:3 
0.225509510893593 487:1 542:1 556:1 690:1 698:1 824:1 1463:1 1549:1 1949:1 2269:1 3538:1 3706:1 
1 654:2 741:1 2519:1 2717:1 3697:1 3947:1 
1 1304:2 2127:1 2615:1 3134:1 3380:1 
1 7:1 1379:1 1834:1 2599:1 3804:1 
1 1153:1 1349:1 
0.9126453410717391 263:1 542:1 556:1 993:1 1075:1 1899:1 3036:1 3778:1 
1 1304:2 1728:1 2629:1 2680:1 3032:1 3134:1 
0.8094075429304074 989:1 1844:1 1949:1 2217:1 2486:1 2819:1 3222:1 3271:1 3455:1 3573:1 3929:1 
1 1537:1 2228:1 2985:1 3001:1 3402:1 3524:1 3905:1 
0.7961182183777551 1518:1 1943:1 3038:1 3040:1 3210:1 3243:1 
1 1334:1 1820:1 1974:1 2290:1 3418:1 3599:1 3731:1 
0.374671705694713 1336:1 2276:1 2552:1 3599:1 3782:1 3793:2 3886:1 
0.9130548040095371 144:1 1401:1 1444:1 1811:1 1988:1 2233:1 2885:2 3261:1 3599:1 3715:1 
1 275:1 889:1 1181:1 1400:1 1863:1 1868:1 2007:1 2699:1 2942:1 3261:1 
0.3164817808941032 165:1 376:1 1405:1 1546:1 1564:2 1602:1 1693:1 1825:1 1919:1 2290:1 3059:1 3947:1 
1 1463:1 1899:1 2445:1 2847:1 
1 275:2 1558:1 2217:1 2609:1 
1 542:1 556:1 1328:1 3640:1 
1 278:1 1478:1 1949:1 2190:1 3771:1 
0.9370112884575841 544:3 950:1 1463:1 1823:1 1868:1 2040:1 2238:1 2652:1 2653:1 3001:1 3355:1 3486:1 
1 1336:1 3538:1 3793:1 3947:1 
1 175:1 541:1 940:1 1141:1 1176:1 2534:1 
1 1349:1 1825:1 
1 152:1 1099:1 2002:1 
0.1582076580756395 381:1 542:1 556:1 698:1 950:1 1334:1 1440:1 1463:2 1539:1 1805:1 1825:1 1949:2 1980:1 1988:1 2043:3 2320:1 2424:1 2602:1 2751:2 3151:1 3276:1 3383:1 3421:1 3742:2 3799:1 3947:1 
1 140:1 1337:1 1444:1 2622:1 2843:1 
1 938:1 1399:1 1825:1 1868:1 1949:1 1998:1 2007:1 2052:1 2486:1 3017:1 3600:2 
1 3780:1 
0.2256783702851455 36:1 132:2 364:1 500:1 558:1 580:1 633:1 687:1 965:1 1068:1 1228:1 1287:1 1370:1 1380:1 2669:1 2878:1 3354:1 
1 36:1 132:2 364:1 500:1 558:1 580:1 633:1 687:1 965:1 1068:1 1228:1 1287:1 1370:1 1380:1 2669:1 2878:1 3354:1 
1 36:1 132:2 364:1 500:1 558:1 580:1 633:1 687:1 965:1 1068:1 1228:1 1287:1 1370:1 1380:1 2669:1 2878:1 3354:1 
1 2168:1 3780:1 3783:1 
1 60:1 288:1 950:1 1072:1 1549:1 1719:1 2502:1 2730:1 
1 171:1 296:1 395:1 824:2 890:1 1218:1 1298:1 1578:1 1943:1 2007:1 2381:1 3029:1 3063:1 3571:1 3742:1 
1 430:1 1668:1 
1 2168:1 3780:1 3783:1 
1 950:1 1451:1 1868:1 2082:1 3021:1 3160:1 
0.345694838294384 297:1 383:1 410:1 824:1 1488:1 1493:1 1825:2 1868:1 1931:1 2007:2 2043:2 2429:2 2691:2 2847:1 2852:1 2888:1 3364:1 3775:1 
1 454:1 991:1 1739:1 
1 2082:1 2624:1 3886:1 
0.9969042580027748 297:1 383:1 410:1 824:1 1488:1 1493:1 1825:2 1868:1 1931:1 2007:2 2043:2 2429:2 2691:2 2847:1 2852:1 2888:1 3364:1 3775:1 
1 823:1 2142:1 3505:1 3741:1 3781:1 3793:1 
1 542:1 556:1 1825:1 2043:1 2852:1 3327:1 3706:1 3742:1 
1 711:1 1988:1 2718:1 
1 599:1 1463:1 1988:1 3570:1 3898:1 
1 510:1 1463:1 1496:1 1570:1 1704:1 1851:1 1915:1 2391:1 3380:1 3524:1 3799:1 3850:1 
0.9665586038355241 36:1 132:2 364:1 500:1 558:1 580:1 633:1 687:1 965:1 1068:1 1228:1 1287:1 1370:1 1380:1 2669:1 2878:1 3354:1 
1 556:1 1542:1 3640:1 
-0.002713194138954837 120:1 938:1 989:1 1661:1 1825:1 1868:1 1949:1 3271:1 3770:1 3895:1 
-0.08395130729147426 246:1 343:1 556:1 643:1 824:1 960:1 989:1 2290:3 2690:1 2811:1 3198:1 3261:1 3429:1 3551:1 3704:1 3812:1 
-0.04862183069470589 270:1 352:1 977:1 1257:1 1368:2 1463:2 1988:1 2105:1 2595:1 2602:1 2673:1 2720:1 3486:1 3522:1 3524:2 3539:1 3625:1 3742:3 3770:1 3943:1 
-0.1297844134582922 501:1 731:1 1176:1 1617:1 1966:1 2586:1 2721:1 2924:1 3745:1 
-0.2065884064012283 137:2 216:1 321:1 726:1 950:1 1743:1 2151:1 2301:1 2420:1 2545:1 2602:1 3132:1 3377:1 3663:1 
-0.385156501791407 1044:1 1728:1 1848:1 2393:1 
-1 2168:1 3780:1 3783:1 
-0.8620351668807562 218:1 447:1 1627:1 3742:1 
-0.08042997642851323 1553:1 2734:1 2804:1 
-0.4301613257068853 137:1 950:1 1093:1 1405:1 1491:1 1639:2 1743:1 1811:1 2151:1 2314:1 2315:1 2358:1 2521:1 2545:1 2840:1 3132:1 3377:1 3538:1 
-0.9274837471653896 1463:1 1860:1 1931:1 3148:1 
-1 634:1 779:1 1825:1 3524:1 3744:1 
-0.2908982995214991 989:1 1718:1 1825:1 1949:1 2004:1 2365:1 3716:1 3770:1 
-0.02612333515199685 467:2 563:1 1256:3 1943:1 2142:1 2840:1 3001:1 
-0.05658245572319726 792:1 2847:1 3036:1 3531:1 
-0.2287354522133425 326:2 884:1 1853:1 1868:1 2151:2 
-0.6475286527360715 921:1 950:1 1488:1 3939:1 
-0.2008272448328134 71:1 938:1 1437:1 2652:1 2816:1 
-1 18:1 110:1 132:2 364:1 500:1 558:1 633:1 754:1 965:2 1068:1 1287:2 1370:1 1515:1 1743:1 2669:1 2933:1 3327:1 3377:1 
-0.1455927023631752 824:1 1367:1 1746:1 
-0.1851756916275114 1513:1 3527:1 
-0.2514131069039344 1176:1 1696:1 2048:1 2681:1 3001:1 3031:1 3338:1 
-0.04658787826077352 236:1 358:1 849:1 1195:1 1718:1 1825:1 1949:1 2575:1 3475:1 3715:1 3773:1 
-0.003991682304984283 803:1 824:1 872:1 932:1 1159:1 1374:1 1451:1 1653:1 1853:1 1980:1 2043:1 2058:1 2272:1 2680:1 2985:1 3898:1 
-0.1879120990183613 2007:1 3935:3 
-0.1053490788339697 654:1 1053:1 2983:1 3001:1 3029:1 3353:1 3355:1 3538:1 3742:1 
-0.04319711976627127 749:1 1580:1 3033:1 3296:1 
-0.04323933602974738 307:1 486:1 792:1 1130:1 1304:1 1374:1 1670:1 1826:1 1965:1 2101:1 
-0.05759687903788803 133:1 140:1 255:1 301:1 403:1 785:1 1030:1 1065:1 1193:1 1507:1 1522:1 1868:1 2043:1 2602:1 3522:1 3615:1 3659:1 3882:1 
-0.05687516284369001 351:1 1002:1 1053:1 1379:1 1478:1 1565:2 1986:1 2139:1 2381:1 2590:2 2942:1 3095:1 3133:1 3161:1 3441:1 3818:1 
-0.05288430061961589 485:1 1087:1 1478:1 1518:1 1655:1 1724:1 1825:2 2021:2 2368:1 2714:1 2847:1 2910:2 3001:1 3077:1 3227:1 3333:1 3387:1 3611:1 3615:1 3812:1 
-0.9749905211662339 171:1 562:1 982:1 1234:1 1416:1 1943:1 2048:1 2678:1 3931:1 
-0.009109140807918763 2082:1 2430:1 3524:1 
-1 3051:1 
-0.07140385191338661 196:1 289:1 1496:1 1825:1 1848:1 1949:1 2115:1 2840:1 3271:1 3401:1 3551:1 3780:1 3876:1 
-0.1182754722426888 83:1 370:2 449:1 763:1 810:1 978:1 1304:1 1825:1 1895:1 2138:1 2151:1 2602:1 2689:1 2710:1 3267:1 3907:1 
-0.4145782390794938 1176:1 1388:1 1988:1 2048:1 2111:1 2485:1 3029:1 
-1 950:1 1504:1 1796:1 3780:1 
-1 1009:1 1399:1 3383:1 3884:1 
-0.2980401167007224 555:2 919:1 1525:1 3029:1 3068:1 
-0.7845516127748996 1095:1 1686:1 3886:1 
-0.06927083302956749 1803:1 1825:1 1863:1 2443:1 3418:1 3715:2 3957:1 
-0.05524139283132519 1616:1 2048:1 2147:1 3380:1 3577:1 3793:1 
-0.7934324631405767 499:1 1424:1 1825:1 2029:1 2619:1 3742:1 
-0.0839030199016321 1478:1 1949:1 1988:1 3306:1 
-0.4432656549961294 28:1 763:1 830:1 1803:1 2579:2 3340:1 3706:1 
-0.01180418321610295 877:1 940:1 1334:1 1868:1 2082:1 2766:1 3752:2 3927:1 
-0.2960211164016053 2185:1 2486:1 3599:1 
-0.0285260909063928 218:1 1386:1 1390:1 1770:1 2007:1 2943:1 
-1 231:1 256:1 646:1 716:2 1007:1 1228:1 1271:1 1287:1 1398:1 1825:1 1955:1 2545:1 2681:1 3006:1 3091:1 3208:1 3744:1 
-0.7416559991700479 275:1 3505:1 
-0.03078723332538043 175:1 993:1 1304:1 1718:2 2793:1 2804:1 2809:1 3732:2 
-0.4836369088182529 59:1 542:1 1399:1 1825:1 1868:1 1949:1 2024:1 2317:1 3741:1 3812:1 
-0.08017840386520793 1153:1 1382:1 1681:1 2384:1 2464:1 2690:1 3724:1 3895:1 
-0.105504342575194 1154:1 2458:1 
-0.02896082115492615 544:2 2007:1 2060:2 2809:1 
-0.4226044205194108 2200:1 2202:1 2897:1 3340:1 3538:1 3799:1 
-0.7262953311200953 60:1 99:1 735:1 2534:1 3713:1 3886:1 
-0.1503478803399125 165:1 284:1 1262:1 2609:1 2824:1 3035:1 
-0.4910003723768842 1316:1 1965:1 2217:1 3157:1 3381:1 3742:2 3755:1 
-0.7125034488174073 655:1 887:1 2638:1 3742:1 3793:1 
-0.9237886527522571 52:2 95:2 196:1 213:1 658:1 669:2 781:1 824:2 983:3 1039:1 1377:2 1868:1 2074:1 2383:1 2580:3 2602:2 3362:1 3385:1 3401:1 3551:1 3759:1 3762:1 3845:1 
-0.001179228966354281 890:1 1323:1 1825:1 1868:1 1980:1 2082:1 2084:1 2819:1 3033:1 3799:2 
-0.2545544907171004 192:1 389:1 1491:2 1816:1 2178:1 2414:1 2419:1 3457:1 3742:1 
-0.8636133135812863 177:1 326:1 342:1 2499:1 
-0.03620915411237165 1285:1 3033:1 3870:1 
-0.009361526976668208 189:1 556:1 1463:1 1966:1 2652:1 3742:1 3743:1 
-0.3532161554340617 950:1 1373:1 3270:1 
-0.0999062278214146 234:1 865:1 1105:1 1580:1 1949:1 3029:1 3134:1 3474:1 3631:1 3882:1 3907:1 
-0.09879206839680452 99:1 938:1 1091:1 1217:1 1304:1 1949:1 1988:1 2322:1 
-0.2539625743194927 1212:1 1744:1 3793:1 
-0.08423378350833589 1140:1 1478:1 2387:1 2393:1 3116:1 3500:1 
-0.1939125693169991 260:1 940:1 989:1 1213:1 1825:1 2026:1 3261:1 3780:2 
-0.03101813094232118 192:1 449:1 1053:1 2032:1 2514:1 3530:1 
-1 1212:1 1744:1 3486:1 3524:1 3793:1 
-0.1217284552246353 884:1 1146:1 1153:1 1349:1 1468:1 1943:1 3380:1 3392:1 3524:1 3625:1 3710:1 3777:1 
-0.4986407646963256 556:1 643:1 1825:1 1853:1 3099:1 3463:1 3794:1 3950:1 
-0.1698268527460043 328:1 938:1 1868:1 2897:1 3213:1 3742:1 
-0.0883487956671843 275:1 308:1 692:2 893:1 1399:1 1417:1 1451:1 1653:1 1682:1 1988:1 2043:1 2165:1 2698:1 3154:1 3599:1 3872:1 
-0.2166498250042539 1746:1 2652:1 3242:1 
-0.4962960498225177 824:1 826:1 1373:1 3063:1 3636:1 3647:1 
-0.1651457482262018 310:1 884:1 1304:1 2180:1 2609:1 3780:1 3835:1 
-0.1066763661742118 591:1 1379:1 2214:1 2290:1 2378:1 
-0.2117355504237803 391:1 1564:1 1868:1 2942:1 3528:1 
-0.005596455000448609 99:2 735:1 1658:1 1851:1 1898:1 1949:1 2121:1 2454:1 3040:1 3524:1 3660:1 
-1 654:1 1304:2 1386:1 
-0.1982210927591054 140:1 654:1 881:1 950:1 1603:1 1658:1 1825:1 1868:1 1943:1 1998:1 2120:1 2127:1 2206:1 2602:1 2837:1 3551:2 3649:1 3769:1 
-0.3311765211491006 1463:1 1496:1 1549:1 2884:1 3505:1 3551:1 3706:1 3742:1 
-1 60:1 556:1 654:1 1949:1 2602:1 2837:1 3524:1 3538:1 3869:1 3898:1 
-0.6900761169825634 1316:1 2718:1 2864:1 3168:1 3355:1 3742:1 3793:1 
-0.09735331635165871 137:1 216:1 321:1 726:1 950:1 1405:1 1744:1 1756:1 1811:1 2151:1 2301:1 2420:1 2602:1 3132:1 3377:1 3728:1 
-1 1661:1 
-0.05542360390368612 340:1 379:1 887:1 1634:1 1851:1 1979:1 2338:1 3060:1 3146:1 3323:1 3612:1 
-0.2255224974152366 950:1 989:1 2026:1 2272:1 2532:1 2847:1 
-0.6548759501574074 26:1 
-0.549420987477069 1153:2 1397:1 1491:1 1863:2 1988:1 3029:1 3063:1 3724:1 3742:1 
-0.8812019873866396 553:1 643:1 1942:1 
-0.02715201967148139 125:1 171:1 236:2 324:1 486:1 1348:1 1369:1 1504:1 1633:1 2056:1 2500:1 2945:1 3001:1 3048:1 3931:1 
-0.02052105454830188 1862:19 2462:1 
-0.05391082383816384 53:1 410:1 462:1 556:1 877:1 889:1 1170:1 1198:2 1334:2 1454:2 2600:1 2652:1 
-0.2362020831552765 923:1 1072:1 1825:1 1988:1 2502:2 2699:1 2909:1 3029:1 3524:1 3665:1 
-0.002457870858784879 1424:1 1629:1 1826:1 2007:1 2317:1 2500:1 2609:1 3759:1 3886:1 
-0.2863035873784082 98:1 389:1 1655:1 1825:1 1898:1 2687:1 3277:1 3283:2 3524:1 
-0.06565753363209467 668:1 1131:1 1334:1 1399:1 1718:1 1988:3 2111:3 2502:1 2515:1 2557:1 2707:1 3053:1 3136:1 3453:1 3683:1 
-0.2294797052315818 140:1 273:1 1980:1 3453:1 3505:1 3565:1 3823:1 
-0.2014101572913429 1523:1 2715:1 2904:1 3126:1 
-0.01393851885822776 41:1 59:1 308:1 418:1 869:1 1128:1 1299:1 1793:1 1868:1 1966:1 1980:1 2007:1 2077:1 2107:1 2381:1 3929:1 
-0.02852091772403934 824:1 1137:2 1304:1 1511:1 1851:1 2327:1 3422:1 3665:1 3771:1 
-0.258887731103687 358:1 500:1 884:1 1098:1 1137:1 1227:1 1496:1 1949:1 2043:1 2167:1 2652:1 2718:1 2847:1 2942:1 3126:1 3421:1 3529:1 3742:1 3793:1 3898:1 
-0.04348958701948886 127:1 352:1 841:1 1299:1 2093:1 3055:1 3377:1 
-0.3533050113084031 1405:2 1905:1 2359:1 2419:1 
-0.2735944142797102 495:1 1225:1 1668:1 1943:1 2840:1 3280:1 
-0.01116145143413839 219:1 940:1 1377:1 1424:1 1868:2 1949:1 2847:1 3033:1 3457:2 3486:1 3522:1 3524:1 3551:1 3615:1 3636:1 
-0.1170121418673606 265:1 273:1 690:1 1522:1 
-0.1356917552873404 1699:1 1969:1 2508:1 2866:1 3742:1 3744:1 3761:1 3785:1 
-0.05843608495770655 63:1 541:1 727:1 3029:1 
-0.01903338222598083 1146:1 1304:1 1313:1 1334:1 1463:1 1825:1 2030:1 2180:1 3353:1 3615:1 3625:1 
-0.003265238375090413 127:1 739:1 1123:1 1287:1 1334:1 2082:1 2368:1 2500:1 3012:3 3886:1 
-0.4297831742705858 1424:1 2885:1 3271:1 3770:1 3898:1 
-0.08576859677325567 2071:1 3126:1 3717:1 
-0.5894485548154839 296:1 1216:2 3099:1 
-0.1018140230455102 1367:1 1899:1 2297:1 2341:1 2444:1 2486:1 2669:1 2753:1 3134:1 3271:1 3793:1 3929:1 
-0.2478249409073258 803:1 1463:1 1965:1 2540:1 2774:1 
-0.08271154702922005 1163:1 1782:1 2254:1 2419:1 2440:1 2565:1 3229:1 3742:1 
-0.4705017725512142 1018:1 1122:1 1176:1 1304:1 2272:1 3353:1 
-0.07580452083408161 88:1 182:1 273:1 375:1 383:1 510:1 533:1 824:1 991:1 1053:1 1116:1 1118:1 1210:1 1463:1 1549:1 1766:1 1825:1 1943:1 2007:1 2117:2 2575:1 2602:1 2883:1 3029:1 3522:1 3551:1 3823:1 3929:1 
-0.1184662043880523 887:1 938:1 1095:1 1147:1 1286:1 1316:2 1463:1 1756:1 1943:1 1949:2 1980:1 2491:1 
-0.7421677842283974 322:1 887:1 3340:1 
-0.979217052392048 611:1 1949:1 2545:1 2873:1 
-1 60:1 965:1 2885:1 3538:1 3886:1 
-0.9268179382850807 654:1 1828:1 2082:1 
-0.3834378041879657 18:2 406:1 824:1 947:1 950:1 1399:1 1405:1 1539:1 2115:1 2180:1 2847:1 2986:1 3615:1 
-1 654:1 1210:1 1825:1 1843:1 2715:1 3128:1 3538:1 
-0.2896050405198597 541:1 932:1 1853:1 2059:1 2502:1 2922:1 3742:1 3793:1 
-0.5672848569340303 1496:1 1977:1 2452:1 3353:1 3388:1 3551:1 3706:1 3717:2 3742:1 3947:1 
-0.1892390109874373 989:1 2041:1 3524:1 
-0.08326617806643347 522:1 1065:2 1304:1 1316:1 1399:2 1558:1 1825:2 1868:2 2441:1 2847:1 2991:1 3283:2 3605:2 3793:1 
-0.1931392480128278 1137:1 1656:1 1825:1 2774:1 3780:1 
-0.1041849644100668 175:1 257:1 389:1 542:1 567:1 1253:1 1491:1 1730:1 1949:1 1966:1 2082:1 2114:1 2374:1 2586:1 2652:1 2819:1 2847:1 2910:3 
-0.1154765200334795 225:1 685:1 2479:1 2689:1 2805:1 3799:1 3886:1 3898:1 
-0.3859008560975264 275:1 383:1 1661:1 1980:1 2045:1 3615:1 
-1 556:1 1949:2 2142:1 3742:2 
-1 159:1 216:2 283:1 498:2 500:2 503:1 542:1 556:1 1376:1 1463:1 1542:3 1549:1 1570:1 1949:2 2018:1 2134:1 2290:1 2602:1 2834:1 3351:1 3383:1 3388:2 3417:1 3551:1 3615:1 3851:1 3947:1 
-0.1669649402659025 28:1 876:1 1217:1 1336:1 1825:1 2110:1 2641:1 3524:2 
-0.03213269824291265 841:1 1193:1 1552:1 1711:1 1823:1 1868:1 1965:2 2268:1 3615:1 
-1 140:1 542:1 556:1 698:1 784:1 1192:1 1328:1 1463:1 1868:1 1949:2 3383:2 3388:1 3816:1 3884:1 
-1 654:1 2837:1 3353:1 3380:1 
-0.5203199319815808 542:1 1175:1 1463:1 1699:1 2007:1 2050:1 2699:1 3457:1 3615:1 
-0.02884776233641205 682:1 1424:1 2142:1 3256:1 3486:1 
-0.4131314138629858 321:1 502:3 541:2 950:1 1208:1 1496:1 1504:1 1542:1 1825:1 1931:1 1949:1 1965:1 2043:1 2082:1 2257:1 2290:1 2384:1 2403:1 2426:1 2602:4 2669:2 2841:2 3033:1 3327:1 3383:1 3417:2 3522:1 3640:2 3742:1 3780:1 3947:2 
-1 1075:1 2837:1 3290:1 3653:1 3793:1 3898:1 
-0.06803559181555595 608:1 940:1 1015:1 1227:1 1868:1 1949:2 1988:2 2847:1 3512:1 
-0.1380274081092707 938:1 1109:1 1504:1 1571:1 1785:2 2082:1 2454:1 2486:1 2942:1 
-0.01952474323505686 352:1 478:2 508:1 1486:1 1918:1 2842:1 2849:1 2942:1 3446:1 
-0.02798664678098718 1137:1 1225:1 1232:1 2292:1 
-0.02765506423601922 59:1 154:1 704:1 1578:1 2627:1 3250:1 3522:2 3840:1 3913:2 
-0.7191040761135502 259:1 2655:1 
-0.2954819776535837 308:1 828:1 2137:1 3744:1 
-0.2385577935722038 275:1 1137:1 1268:1 1386:1 1931:1 3633:1 3872:1 
-0.1433292212590843 900:1 2636:1 3068:1 3323:1 3446:1 
-0.1836812768310301 893:1 940:1 1868:1 1886:1 1949:1 1988:1 
-0.1611469791699321 216:1 302:1 401:1 810:1 1542:1 1851:1 1949:1 2001:1 2124:1 2602:1 2633:2 3313:1 3455:1 3505:1 3637:1 3659:1 3799:1 3814:1 3882:1 
-0.03283723457454125 1010:1 1331:1 1515:1 1831:1 1853:1 1945:1 1949:1 2137:1 3538:1 3929:1 3942:1 
-0.4065977809534074 1949:1 1988:1 3539:1 
-1 192:1 485:1 542:2 689:1 690:1 828:1 1611:1 1936:1 2714:1 2910:1 3029:1 3244:1 3283:1 3610:1 3611:1 3615:1 
-0.1344129358139741 308:2 367:1 940:1 1463:2 1949:4 2082:1 2496:1 2602:1 3029:1 
-0.6285111127850816 234:1 851:1 1388:1 1463:1 1546:1 1825:1 1988:1 2007:1 3759:1 
-0.0592794705145006 99:1 661:1 1053:1 2269:1 2984:1 3791:1 
-0.06302646614814728 235:1 478:1 789:1 1463:1 1578:1 1864:1 1949:1 
-0.05860362309271187 436:1 2142:1 2655:1 3886:2 
-0.0001110967550315287 467:1 676:1 1070:1 1632:1 2718:1 3421:1 3427:1 
-0.2572272722517931 39:1 887:1 917:1 950:1 1066:3 1316:1 1334:2 1424:1 1463:1 1661:1 1758:1 1825:1 2007:1 2043:1 2142:2 2549:1 2652:1 2690:1 2920:1 3104:1 3327:1 3742:2 3793:2 3935:1 
-0.2599436567699723 634:1 779:1 
-0.7786800554571163 28:1 60:1 443:1 643:1 1075:1 1304:1 1949:1 2602:1 3134:1 3276:3 3413:1 3717:1 3768:1 3947:1 
-0.003743043222657908 141:1 286:1 928:1 950:2 1486:1 1542:2 1655:1 2074:1 2272:1 2419:1 2602:1 3323:2 3326:1 3353:1 3793:1 
-0.01734842459820413 60:1 196:1 275:1 301:1 1374:2 1424:1 1451:1 1463:2 2003:1 2506:1 2512:1 3522:1 3524:1 
-0.05460917669961499 99:1 525:2 776:1 824:1 884:1 1581:1 1825:2 1898:1 1949:1 2487:1 3134:1 
-0.179980800588748 55:1 2082:1 2344:1 
-0.576399317286482 285:1 461:1 1931:1 2825:1 2908:1 
-0.1442478327712335 313:1 1924:1 3114:1 
-0.1209734401400057 28:1 149:1 940:1 1109:1 1334:1 1336:1 1678:1 1825:1 1868:2 1963:1 2082:1 2267:1 2307:1 2362:1 2454:1 2502:1 2609:1 2930:1 3134:1 3486:1 3524:1 3715:1 3793:1 3882:1 3898:1 
-0.2262515576390618 239:1 446:1 1313:1 1847:1 3134:1 3310:1 3793:1 
-0.0487301289684792 49:1 99:1 280:1 391:1 433:1 1130:1 1176:1 1410:1 1549:1 2007:1 3063:1 3310:1 3551:1 
-0.1984625970946206 24:1 119:1 522:1 921:1 1153:1 1304:1 1316:1 1646:1 1848:1 2819:1 3615:1 
-0.249220811969954 645:1 1316:1 2004:1 2007:1 2734:1 2836:1 3305:1 3505:1 
-0.01360132606754918 721:1 1401:1 2192:1 2320:1 2893:1 3001:1 3063:1 3168:1 3203:1 3453:1 3524:1 3551:1 3560:1 3615:1 3653:1 3780:3 3905:1 3927:1 
-0.3449154487104346 389:2 646:1 735:1 1299:1 1803:1 1880:1 1986:1 3267:1 3551:1 
-0.1754301575201644 322:1 803:1 1071:1 1549:1 1988:1 2200:1 2217:1 2599:1 2942:1 3313:1 3353:1 3393:1 3633:1 
-0.6956995754809968 218:1 542:1 950:1 1334:1 2652:1 
-0.04807384221921314 382:1 754:1 877:1 893:1 1028:1 1174:1 1374:1 1679:1 1688:1 2007:1 3064:1 3102:2 3482:1 3683:1 
-0.0876853604510426 799:1 824:1 2137:1 2147:2 3898:1 
-1 137:1 542:1 1743:1 1744:1 2262:1 2389:1 3075:1 
-0.0262515383763994 654:1 1147:1 1283:1 1463:1 1469:1 1811:1 1863:1 2032:2 2069:1 
-1 643:1 646:1 965:1 1287:1 1613:1 1614:1 2202:1 
-0.06769711040202429 1386:1 1829:1 3001:1 3077:1 3848:1 
-0.4266931710173607 313:1 1397:1 1463:1 1868:1 1924:1 2050:1 2082:1 2655:1 3114:1 3161:1 3323:1 3551:1 
-0.07316266567709026 60:1 522:1 609:1 1918:1 1980:1 1987:1 2059:1 2603:1 2840:1 3884:1 
-0.01729069633712651 446:2 940:1 950:1 1401:1 1825:1 1868:1 1908:1 1949:1 1988:1 2082:1 2155:3 2874:1 3560:1 3715:1 
-0.2749427700642959 296:1 1348:1 3551:1 3568:1 
-0.001516134177311519 149:1 175:1 212:1 296:1 454:1 646:1 749:1 759:1 1028:1 1261:1 1334:2 1420:1 1825:1 1949:2 2063:1 2652:1 3929:1 
-0.1846112456957119 1304:1 1364:1 1868:1 1888:1 2194:1 2403:1 3837:1 
-0.02224250774656247 99:1 169:2 662:2 893:1 1146:1 1199:1 1261:1 1695:2 1756:1 1776:1 1873:1 1980:1 2043:1 2107:4 2109:1 2240:3 2251:1 2433:1 2681:1 2801:1 2829:1 3245:3 3273:1 3286:1 3401:1 3633:1 3820:2 3867:4 
-0.3367960489820245 514:1 1176:1 2048:1 2151:1 3022:1 3528:1 
-0.0007686329938741533 514:1 1018:1 1986:1 2582:1 3551:1 
-0.03674259402502682 654:1 2344:1 2670:1 
-0.2743462549723379 851:1 1148:1 1503:1 2338:1 
-0.01427396672520925 542:1 548:1 1187:1 2045:1 2900:1 3742:1 
-0.8545146375551326 2629:1 2847:1 2869:1 3134:1 
-1 643:1 965:1 1287:1 1614:1 2202:1 3170:1 3799:1 
-0.197962535290145 175:1 243:1 634:1 2599:1 2697:1 3344:1 3505:1 
-0.196284460368441 2288:1 2990:1 3243:1 
-0.3710623844840328 227:1 556:1 1482:1 1868:1 1931:1 2662:1 3524:1 3742:1 
-0.1830874054169247 382:1 1374:1 2883:1 
-0.1176428011842182 1012:1 1405:1 2018:1 
-0.3002407680137075 1095:1 1853:1 3652:1 3742:1 
-0.003234677554668977 1320:1 2387:1 2804:1 2959:1 
-0.3596384417795286 1511:1 1733:1 3388:1 3742:1 3793:1 
-1 542:1 950:1 2683:1 2847:1 
-0.529854522213825 25:1 296:1 1564:1 
-1 654:1 1661:1 3615:1 
-0.9995877803066306 556:1 973:1 1463:1 2898:1 
-1 2414:1 3036:1 3744:1 3892:1 
-1 2414:1 3036:1 3744:1 3892:1 
-0.05577996451059357 151:1 152:1 521:1 609:1 950:1 1401:1 1942:1 2320:1 2415:1 2711:1 3029:1 3486:1 3683:1 3884:1 
-0.2221596508459398 300:1 1463:1 1486:1 1988:1 2142:2 2609:1 2897:1 3336:1 3615:1 
-0.01490871844805839 921:1 3741:1 
-0.5183157713947729 542:1 950:1 1307:1 3793:1 
-0.151692833651035 1562:1 1658:1 1831:1 1949:1 1979:1 2417:1 
-0.04583141000903682 2908:1 3538:1 
-1 1477:1 2414:1 3036:1 3744:1 3892:1 
-0.2102040684868309 93:1 383:1 589:1 606:1 752:1 1007:1 1160:1 1299:1 1546:1 1825:1 1963:1 2007:4 2217:1 3524:1 3664:1 
-0.1503965374983505 119:1 542:1 754:1 1163:1 1304:1 1334:1 1348:1 1386:1 1949:1 1980:1 1988:1 2180:1 2608:1 2925:1 3126:1 3742:1 3895:1 
-0.2760845777980224 950:1 1328:2 1803:1 2002:1 2262:1 2343:1 2652:1 3457:1 3742:1 
-0.07897728725129316 279:1 
-0.2118654719617103 196:1 836:1 1718:1 1931:1 1963:1 1971:1 2043:1 2139:1 2217:1 2579:1 2586:1 2602:1 2819:1 3261:1 3353:1 3465:1 3524:1 3615:1 
-0.2475258829499143 131:1 391:1 555:1 763:1 836:1 889:1 1496:1 1546:1 1790:1 1825:1 1868:1 2007:1 2074:1 2185:1 2998:1 3176:1 3793:1 3929:1 
-0.01032237439769324 171:1 1463:1 2043:1 2202:1 2233:1 2403:1 2990:2 3793:1 3925:1 
-0.04975803566403984 591:1 707:1 950:1 1076:1 1316:1 1497:1 2022:1 2082:1 2139:1 2272:1 3234:1 3498:1 3524:1 3551:1 3730:3 3780:2 3793:2 3886:1 3943:1 
-0.1339319181680102 1397:1 1451:1 1493:1 1949:1 2147:1 3528:1 3905:1 
-0.2017368291124952 60:1 701:1 1141:1 1552:1 1679:1 1756:1 1825:1 1844:1 1930:1 1943:1 2180:1 2602:1 3001:1 3329:1 3780:1 3886:1 
-0.01897549337175874 1463:1 1649:1 2142:1 2652:1 2847:1 
-0.07209327077036873 24:1 1791:1 3056:1 3759:1 
-0.2249137096395868 321:2 549:1 1218:2 1980:1 3001:1 3524:1 
-0.2491584436549323 140:1 195:1 805:1 903:1 1012:1 1093:1 1542:1 1583:1 1766:1 1988:1 2007:1 2043:2 2127:1 2312:1 2332:1 3649:1 
-0.2921320263495528 301:1 1424:1 1958:1 1988:1 2043:2 2217:1 2339:1 2454:1 2519:2 2669:1 3442:1 3742:2 3815:1 3905:1 
-0.02263126425081905 1028:1 1386:1 2007:1 2701:1 
-0.1691339351337035 2048:1 3005:1 3380:1 3528:1 
-0.1971096934497246 540:1 965:1 2007:1 2217:2 3157:1 3741:1 
-0.139904473167884 402:1 611:1 1386:1 1521:1 1672:1 1689:1 3080:1 3388:1 3710:1 3759:1 
-0.9301887805881731 805:1 941:1 3780:1 
-0.06816411655137528 59:1 177:1 383:1 410:1 443:1 824:1 1374:1 1825:1 1949:1 2185:1 2272:1 3001:1 3040:1 3551:1 
-0.3146950880858712 7:1 544:1 787:1 1603:1 
-0.2437097822392366 893:1 950:1 1063:1 1132:1 1399:1 1417:1 1682:1 2074:1 2499:1 2847:1 3285:1 3522:1 3727:1 3803:1 
-0.1237615637665004 654:1 989:1 1304:1 1566:1 1710:1 2041:1 3134:1 3715:1 
-0.03595374542239546 149:1 307:1 789:1 1826:1 1949:1 2441:1 3851:1 
-0.05255296164208733 60:1 383:1 403:1 427:1 589:1 606:1 795:1 1143:1 1356:1 1524:1 1746:1 1868:1 1943:1 2007:1 2124:2 2172:1 2486:1 2609:1 2926:1 3230:1 3261:1 3505:4 3551:1 3589:1 3799:1 3929:2 
-0.01839175736142142 310:1 313:1 1163:1 1260:1 1382:1 2005:1 2920:1 3114:1 3230:1 3551:1 3672:1 
-0.5860756068835832 285:1 392:1 1018:1 1899:1 1900:1 2136:1 2837:1 3169:1 3290:1 3793:1 3939:1 
-0.1399619997532044 103:2 218:1 234:1 950:1 1463:1 1851:1 2325:1 2500:1 2602:1 3007:1 3139:1 3274:1 3519:1 3522:1 3577:1 3683:1 3742:2 
-0.00786622157635713 1227:1 1726:1 2089:1 2290:1 2604:1 2897:1 3086:1 3302:1 3717:1 3886:1 
-1 289:1 461:1 542:1 646:1 654:1 973:2 1064:1 1334:1 1337:1 1542:3 1603:1 1868:1 2043:2 2082:1 2225:1 2320:1 2327:1 2384:1 2412:1 2701:1 2847:1 3207:1 3256:1 3327:1 3375:1 3515:1 3524:1 3538:1 3633:1 3742:1 3886:1 3929:1 3947:2 
-0.18735398556242 241:1 395:1 1520:1 1825:1 2217:1 2317:1 3759:1 3770:1 
-0.5935786833339203 322:1 3383:1 
-0.0129677726482437 2062:1 2383:1 3001:1 3262:1 3528:1 3804:1 
-0.2144289087362976 389:1 994:1 1065:1 1915:1 2272:1 
-1 2007:1 3383:1 
-0.162978355638487 889:1 2734:1 2755:1 3095:2 
-1 950:1 1931:1 3355:1 3633:1 
-0.2104899111284238 313:1 1924:1 3114:1 
-0.2850312463500893 950:1 1397:1 1578:1 1942:1 3524:1 3645:1 
-0.07366524899602091 1370:1 1569:1 1868:1 1877:1 2223:1 2551:1 2713:1 3538:1 3565:1 3571:1 3937:1 
-0.06343809052421816 24:1 446:1 669:1 1438:1 1542:1 1603:1 1949:1 2368:1 2383:1 2478:1 3174:1 3261:1 3417:1 
-0.02725741821594539 1478:1 1988:1 3407:1 3408:1 3877:1 
-0.7301579671019529 650:1 2990:1 
-0.115935087178853 461:1 2715:1 2908:2 
-0.6459304768507722 175:1 218:1 2824:1 3802:1 
-0.3217882182172607 1122:1 1504:1 2050:1 3849:1 
-0.06513925428957676 289:1 383:1 946:1 1822:1 1868:2 1949:1 2082:1 2185:1 2371:1 2486:1 2847:1 3428:1 3770:1 3892:1 3929:1 
-1 301:1 1328:1 2847:1 3640:1 
-0.2985156838060472 721:1 1304:1 1397:1 2825:1 3126:1 3927:1 
-0.1952217778823772 3446:1 3557:1 
-0.6881345725351915 1896:1 2043:1 2904:1 
-0.1874456041478401 2050:1 3296:1 3736:1 
-0.1605802278449212 1134:1 1974:1 3742:1 
-1 2414:1 3036:1 3744:1 3892:1 
-1 2306:1 2414:1 3036:1 3744:1 3892:1 
-0.1290093027234197 322:1 585:1 605:1 1463:1 1553:1 1853:1 1896:2 1949:1 2014:1 2180:1 3001:1 3027:1 3134:1 3324:1 3568:1 3780:1 3896:1 
-1 499:1 921:1 1463:1 
-0.03765123367318804 59:1 99:1 171:1 389:1 735:1 907:1 1177:1 1241:1 1491:1 1542:2 1943:1 2680:1 2815:1 3076:1 3608:1 3770:1 3819:1 3929:1 
-0.000416422135545781 28:1 119:3 196:1 216:1 298:1 454:1 739:1 748:1 1123:1 1208:1 1255:1 1334:2 1336:2 1480:1 1673:1 1949:1 2082:1 2384:3 2586:1 2652:2 3223:2 3377:1 3522:2 3596:1 3599:1 3742:1 3793:1 
-0.1245368934689228 824:2 2652:2 3647:1 3892:1 3898:1 
-0.8103187880933396 1825:1 2547:1 3134:1 3528:1 
-0.8658282093427608 542:1 1078:1 3742:1 3947:1 
-0.2065742748072435 77:1 301:1 307:1 3665:1 3767:1 
-0.1330744018299519 1551:1 1758:1 2003:1 3160:1 3741:1 3938:1 3947:1 
-0.1412868074461146 187:1 1399:1 3640:1 3884:1 
-0.04544226818149123 24:1 590:1 735:1 1132:1 1399:1 1478:1 1546:1 1854:1 1949:2 1958:1 1988:1 2272:1 2715:1 3175:1 3353:1 3905:1 
-0.02886196385661988 50:1 388:1 843:1 887:1 950:2 985:1 1299:1 1375:1 1825:1 1986:1 2272:1 2478:1 2533:1 2724:1 2847:1 2879:2 3001:2 3029:1 3134:1 3223:1 3267:1 3427:1 3457:1 3490:1 3718:1 3780:3 3790:1 3872:1 3905:1 
-0.8838678785871978 542:1 556:1 1108:1 2719:1 3551:2 
-0.3157325132366781 391:1 887:1 1980:1 2109:1 
-0.004186206185691542 416:1 417:1 1140:1 1478:1 1489:1 
-0.138383815067901 669:1 1007:1 1334:1 1933:1 1949:1 2627:1 2652:1 2928:1 3524:1 
-0.23814221553721 296:1 564:1 1170:1 1676:1 3898:1 
-0.0824145232731191 249:1 1648:1 1825:1 2491:1 2674:1 3001:1 3141:1 3267:1 
-0.1919462250658678 1478:2 2510:1 2860:1 2862:1 
-0.9451416482319593 55:1 98:1 99:1 168:1 482:2 950:1 1066:1 1090:1 1260:4 2403:1 2840:1 2923:2 3273:1 3380:1 3886:2 3927:1 
-0.08027853604422575 301:1 321:1 893:2 1075:2 1334:1 1682:1 1821:1 1825:2 2007:1 2192:1 2460:2 3168:1 3203:1 
-0.4769634558415938 186:1 1496:1 1655:1 1854:1 3001:1 
-0.192184578828595 252:1 296:1 377:1 599:1 675:1 950:2 1163:1 1399:1 1444:1 1659:1 1863:1 1977:1 2042:1 2064:1 2602:1 2734:1 3075:1 3683:1 3740:1 
-0.02801742079133889 33:1 476:1 522:1 761:1 1848:1 1970:1 2142:1 
-0.2402976481638227 655:1 1641:1 2007:1 2652:1 3793:1 
-0.4105866354088017 1797:1 3063:1 3742:1 3744:1 3793:1 3947:1 
-0.02679199997167204 308:1 391:1 950:1 1031:1 1137:1 1153:1 1424:1 1825:1 1942:1 1949:1 1988:1 3228:1 3255:1 3522:1 3791:1 3817:1 3932:1 
-0.9828717588088801 585:1 1858:1 2174:1 3323:1 3702:1 
-0.05138679487831976 711:1 1299:1 1549:1 
-0.2708433980966606 711:1 1299:1 1539:1 
-0.7694877245253968 711:1 1299:1 1549:1 
-1 218:1 1299:1 1549:1 
-0.675682150112845 556:1 1382:1 1463:1 1549:1 1868:1 1931:1 2038:1 3079:1 3505:1 3524:1 3847:1 
-1 218:1 3197:1 3793:1 3898:1 
-1 218:1 3197:1 3793:1 3898:1 
-0.02920262377074174 922:1 1120:1 1331:1 1603:1 2290:1 2383:1 2486:1 2597:2 
-0.5870419802651611 754:1 943:1 1988:2 2007:1 3192:1 
-0.1703178626539986 93:1 429:1 556:1 601:1 1009:1 1474:1 1584:1 1980:1 2185:1 2333:1 2427:1 3565:1 3742:1 
-0.1690850012710523 556:1 1009:1 1089:1 1304:1 1471:1 1584:1 1980:1 2185:1 2333:1 3677:1 3742:1 3812:1 
-0.04407238739552242 93:1 429:1 556:1 601:1 1009:1 1471:1 1584:1 2185:1 2333:1 2427:1 3576:1 3742:1 3947:1 
-0.2264079802438123 171:1 1176:1 1386:1 1931:1 1945:1 2048:1 3001:1 
-0.7594715475080627 803:1 1334:2 1336:1 1386:1 1766:1 1949:1 2847:1 3599:1 3780:6 3793:1 
-0.02874291130935777 411:1 586:1 652:1 824:1 1348:1 1386:3 1399:1 1522:1 1539:1 1542:1 1793:3 1820:1 1943:1 1995:2 2007:1 2292:1 2586:1 2721:1 2837:1 2846:1 2905:1 3027:1 3079:1 3173:2 3404:1 3633:1 3636:1 3647:1 
-0.07568311375310259 165:1 169:1 215:2 731:1 805:1 870:1 1208:2 1542:1 1697:4 1714:2 2047:1 2048:1 2102:2 2161:1 2217:2 2348:1 2385:1 2605:1 2641:3 2829:1 3762:2 3847:1 3929:1 
-0.1617408415914253 711:1 1028:1 1124:1 1949:1 
-0.05398096222416167 382:1 654:1 1078:1 1374:1 2350:1 2582:1 3457:1 3659:1 
-0.07272512431122401 2684:7 2730:7 3383:14 3742:7 
-0.2426588333886153 754:1 2245:1 3886:1 
-0.09717635173303414 194:1 654:1 921:1 1949:1 
-0.1021253069031689 296:1 542:1 654:1 1471:1 1744:1 2043:1 2734:1 2930:1 3028:1 3077:1 
-0.04916765577917773 1028:1 1980:1 3287:1 3898:1 
-0.02530896255910764 770:1 1194:1 1316:1 1546:1 1949:1 1969:1 2956:1 2981:1 3759:1 
-0.02135656970688308 113:1 1542:1 2051:1 
-0.107698593418602 1095:1 1851:1 2189:1 
-0.5620590497494246 352:1 1218:1 2129:1 2414:1 2437:1 2860:1 2971:1 
-1 175:1 542:2 991:1 1304:1 1349:1 1825:1 1868:1 1949:1 3156:1 3744:1 3780:1 
-0.04233470941735528 131:1 140:1 893:1 1399:1 1407:1 1825:1 1854:1 1963:1 2077:1 2609:1 2847:1 3001:1 3029:1 3174:1 3175:1 3759:1 
-0.1349955184146904 13:1 1744:2 1745:1 1975:1 2669:1 3251:1 3393:1 3587:1 3715:1 3842:1 
-0.1442547387290425 854:1 1261:1 2640:1 3465:1 
-0.07196662734084863 1493:1 3505:1 3706:1 3793:1 
-0.1087434047739596 140:1 1312:1 1334:1 1549:1 1915:1 2652:1 2755:1 3169:1 3327:1 
-0.1475879753467947 109:1 252:1 1334:1 1417:1 1825:1 1931:1 2652:1 3008:1 3704:1 
-0.2704095536504094 874:1 889:1 1744:1 1960:1 2602:1 3715:1 
-1 18:1 921:1 3715:1 
-0.1283928321045684 1124:1 
-0.1572381753315229 32:1 50:1 234:1 1463:1 1825:1 3401:1 3876:1 
-0.5078500109453303 234:1 1744:1 1825:1 3076:1 3780:1 
-0.6771350888091103 938:1 1316:1 2847:1 2890:1 3168:1 3524:1 
-0.1190745426937393 216:1 234:1 301:1 1208:1 1505:1 1658:1 1697:1 1714:3 1825:1 1868:2 2139:1 3334:1 3522:1 3534:1 
-0.2633359327417047 234:1 542:1 661:1 1756:1 2922:1 3863:1 
-0.2811808597219804 322:1 1147:1 1304:1 3625:1 3780:1 
-0.4156912600887166 2116:1 
-0.129863177463362 808:1 1261:1 1810:1 
-0.02492170043435561 1491:1 1863:1 2292:1 
-0.2705354476641055 1287:1 2180:1 2493:1 2652:1 3892:1 
-0.02768233018111999 259:1 373:1 984:1 1356:1 1515:1 2946:1 3775:1 3780:1 
-0.5792505134927242 125:1 1638:1 
-0.07181484236137865 1408:1 3287:1 3793:1 3810:1 
-1 1306:1 1943:1 3063:1 
-0.9132885322711962 654:1 824:1 1851:1 3697:1 
-0.03395115929996296 727:1 761:1 1427:1 1848:1 1868:1 2142:1 
-0.3016671766398952 88:1 301:1 632:1 1334:1 1676:1 2923:1 
-1 1896:1 2174:1 3388:1 3939:1 
-0.7271508211423214 824:1 1986:1 3540:1 3793:1 
-0.03886365300053445 938:1 950:1 1496:1 1658:1 1943:1 2007:2 2075:1 3029:1 3524:1 
-0.06299350618106252 218:1 727:1 2219:2 3886:1 
-0.01877434916372783 989:1 1537:1 1949:1 2415:2 2842:1 3383:1 3528:1 3647:1 3770:1 3927:1 
-0.6178443551008913 340:1 993:1 3744:1 3781:1 3886:1 
-0.002629883442510584 15:1 803:1 1153:1 1306:1 2118:1 2153:2 2575:1 3113:1 3194:1 3358:1 3818:1 
-0.1829950489251333 586:1 654:1 1231:1 1304:2 1793:1 2445:1 2602:1 2837:1 3134:1 3327:1 3457:1 3524:1 3615:1 3715:1 3780:1 3905:1 3907:1 
-0.2843508852089139 111:1 1405:1 2007:1 
-0.1012536135111099 229:1 522:1 989:1 1304:1 2069:1 2169:1 2226:1 2652:1 3134:1 
-0.1082548060140906 248:1 884:1 921:1 1624:1 1988:1 3185:2 
-0.3148984054738131 502:1 522:1 646:1 1287:1 1825:1 2032:1 3134:1 
-0.2471791486130183 182:1 542:1 993:1 1407:1 1825:1 1942:1 1949:1 2043:1 2609:1 2718:1 2925:1 3380:1 3486:1 3560:1 3584:1 3891:1 
-0.04881938984610636 463:2 3447:1 3604:1 3898:4 
-0.02251114700750877 741:1 1065:1 1558:1 2680:1 3524:1 
-0.2197734572678632 1397:1 1570:1 1825:1 1949:3 2007:1 2317:1 2718:1 3029:1 3126:2 
-0.001601797647459463 709:1 710:1 1521:1 1766:1 2194:1 2970:1 3094:1 3183:1 
-0.01652868450941162 391:1 1825:2 1868:1 2109:1 2619:1 2800:1 3551:1 3891:1 
-0.5389017822848594 654:1 3778:1 
-0.8200517234590653 1451:1 1825:1 1942:1 2925:1 
-0.8564091568330863 890:1 1299:2 1607:1 2454:1 
-0.8659451819356394 187:1 638:1 1405:1 2925:1 3036:1 
-0.04357701498000786 367:1 502:1 556:1 779:1 944:1 1019:2 1396:1 1447:1 2680:1 3263:1 3551:1 3886:1 
-0.3747075756646218 586:1 1195:1 1793:1 1825:1 1900:1 2404:1 
-0.1212326795886439 889:1 2082:2 3089:1 3551:2 3706:1 
-0.1071414146490292 642:1 1255:1 1661:2 1825:1 2043:1 2165:2 2290:1 3039:1 3421:1 3633:1 3780:1 
-0.1061629430485684 556:1 1799:1 3655:1 
-0.1012458670926567 60:1 1349:2 1463:1 1949:1 2107:1 3457:1 3538:1 
-0.1167050055484474 99:1 358:2 389:1 613:2 754:1 767:1 810:1 890:1 919:1 1124:1 1176:1 1344:1 1405:1 1526:1 1546:1 1611:1 1613:1 1669:1 1727:1 1825:1 2170:1 2392:1 2534:1 2682:1 2998:1 3184:1 3424:1 3518:1 3590:1 3605:1 3630:1 3805:1 3872:1 
-1 1304:1 1558:1 2202:1 3793:1 3929:1 
-0.2705026807702651 1504:1 1617:1 1965:1 2486:1 2641:1 2869:1 3134:2 3158:1 3610:1 3620:1 3770:1 
-0.344799074669048 120:1 1504:1 3170:1 3283:1 3742:1 3793:1 3939:1 
-1 643:1 649:1 1287:1 1614:1 2202:1 
-1 429:1 1299:1 1549:1 1980:1 2486:1 3793:1 
-0.02732084540214274 7:1 726:2 1599:1 1763:1 2082:1 2485:1 2734:1 2777:1 3431:1 
-0.02507077577159484 417:1 828:1 950:1 1299:1 1399:1 1504:1 1854:1 1943:2 2017:1 2233:1 2840:1 3446:1 3486:1 3905:1 
-0.6886689564551611 3063:1 3383:1 3524:1 3665:1 
-0.09877609348545367 542:1 611:1 643:3 877:1 1334:1 2397:1 2530:1 2656:3 3615:1 3717:2 3742:3 3744:1 3863:1 3947:3 
-0.08755457945216416 39:1 582:1 605:1 1949:1 2460:1 2707:1 3327:1 
-1 171:1 289:1 542:2 556:1 660:1 1542:1 2003:1 3150:1 3640:1 
-0.3913446619647613 184:1 920:1 1103:1 1825:1 2770:1 
-0.0974887837486323 222:1 326:1 382:1 614:1 778:1 908:1 1304:1 1963:1 2182:1 3134:1 3612:1 3741:1 3780:1 3930:1 
-0.003714956479680552 893:1 1603:1 1825:1 2690:1 3400:1 3538:1 3615:1 3625:1 3882:1 
-0.03352638739415093 90:1 654:1 1578:1 1949:1 2491:1 3615:1 
-1 1785:1 
-0.1123426506754097 346:1 1176:1 2048:1 3659:1 
-0.6823670144909275 994:1 2942:1 3560:1 
-0.5227230926732759 1176:1 2048:1 2970:2 3126:2 
-0.1586516139628213 954:1 1176:1 1279:1 1578:1 1825:1 2048:1 
-0.4134742681434774 99:2 2120:1 2370:1 3283:1 3742:1 3947:1 
-0.02233630136231377 654:2 767:1 824:1 893:1 1230:1 1504:1 1658:1 1714:2 1966:1 2056:1 2151:1 2233:1 2338:1 2477:1 2590:1 2849:1 2897:1 3171:1 3276:1 3538:1 3719:1 
-0.114521166413737 165:1 235:1 301:1 702:2 711:1 940:1 1463:1 1546:1 2082:2 3099:1 3174:2 3455:1 
-0.6937390554805937 542:1 1299:1 1833:1 3380:2 3393:1 3486:1 3793:1 
-0.2525579637488011 70:1 98:1 99:1 950:1 1064:1 1065:1 1569:1 1868:3 1888:2 1918:1 2440:1 2455:1 2602:1 3283:2 3457:1 
-0.3391454732280436 424:1 1299:1 1349:1 2096:1 2660:1 3268:1 3780:1 
-1 542:1 1187:1 1336:1 1444:1 2203:1 2295:1 2962:1 3560:1 3742:1 3793:1 3914:1 
-0.5275303043219642 3902:1 
-0.4564762424204259 228:1 275:1 1988:1 2725:1 
-0.2923915949198199 116:1 542:1 756:1 757:1 1825:1 3029:1 3286:1 
-0.05338554697707008 150:2 386:1 392:1 571:1 639:1 824:1 877:1 903:1 976:1 977:2 1095:1 1299:1 1613:1 1679:1 1854:1 1949:1 2022:1 2069:4 2174:1 2711:1 3077:1 3095:1 3113:1 3243:1 3405:1 3472:1 3475:1 3522:1 3796:1 3884:1 
-0.07869001040485486 99:1 301:1 390:1 1756:1 2602:1 2641:2 3524:1 3742:1 3947:1 
-0.04164367186395621 28:1 745:1 893:1 1249:1 1535:1 1825:1 2269:1 2358:1 2359:1 2798:1 3115:1 3261:2 3505:1 
-0.03828093627922992 218:1 248:1 326:1 884:1 921:1 2050:1 2114:1 2397:1 2734:1 2808:1 3185:1 3388:1 3742:1 
-0.3345310722664331 498:1 500:1 542:1 654:1 940:1 986:1 1848:1 1949:1 1988:2 2050:1 3383:1 3457:1 
-1 646:1 1603:1 1931:1 2205:1 3036:1 3505:1 3706:2 3793:1 
-0.07543592950156995 99:1 121:1 946:2 1065:1 1304:1 1658:1 1888:1 2120:2 2687:1 3277:1 3283:4 3907:1 
-0.2462658150419553 2527:1 3033:1 3134:1 
-0.2388989051185501 1463:1 1546:1 2018:1 2491:1 2971:1 
-0.2788841426178774 218:1 1603:1 1825:1 2235:1 3755:1 
-1 542:1 556:1 1214:1 2007:1 2142:1 3417:1 3799:1 
-0.005660100954362556 99:1 473:1 1065:1 1386:1 1825:1 1963:1 2120:1 2194:1 2233:1 2359:1 2895:1 3001:1 3004:1 3073:1 3182:1 3277:1 3683:1 3742:1 3947:1 
-0.4159477665243084 326:1 1023:1 2043:1 2166:1 2499:1 3913:1 
-0.7673878147254414 739:1 1153:1 1386:1 1463:1 3004:1 3077:1 
-0.1823107464886863 200:1 611:2 1066:2 2652:1 2715:1 3338:1 3603:1 3742:2 
-0.04889358310898924 149:1 462:1 737:1 792:1 950:1 1007:1 1299:1 1304:1 1334:1 1949:1 2480:1 3223:1 3354:2 3382:1 3872:1 3888:1 
-0.4556828658783031 136:1 544:1 1463:1 1949:1 1988:1 2040:1 2487:1 3551:1 3570:1 3599:2 3734:1 
-0.2201932750921792 1225:1 
-1 1949:1 3059:1 3741:1 
-0.003835506282648401 3192:1 
-0.4269091993808718 384:1 1436:1 3538:1 
-0.07779966121967755 13:1 754:1 2942:1 3329:1 3691:1 3886:1 3947:1 
-0.09488272327947962 1728:1 1966:1 3684:1 3935:1 
-0.02744519654781235 592:1 1239:1 1463:1 2268:1 2891:1 3146:1 3872:1 3888:1 
-0.04326635198253158 683:1 789:1 2403:1 3744:1 
-0.0275255012722781 479:1 703:1 950:1 1463:2 1542:1 1768:1 1825:1 2139:1 2476:1 3134:1 3475:1 
-0.01024680524706184 19:1 24:1 3191:1 3247:1 
-0.2243219021513497 131:1 396:1 522:1 689:1 957:1 993:1 994:1 1658:1 1879:1 1936:1 2233:1 2258:1 3072:1 
-0.1295629374787957 941:1 1132:1 2486:1 2776:1 3744:1 
-2.263203314376177e-05 137:1 661:1 716:1 862:1 1105:1 1334:1 2180:1 3075:1 3522:1 
-0.1889968535512587 940:1 1055:1 1578:1 1988:1 2592:1 
-0.03946355085462496 824:1 2202:3 2998:1 3112:1 3793:1 
-0.08468731073422506 111:1 137:2 218:1 654:1 1297:1 1397:1 1988:1 2948:1 3413:1 3524:1 3781:1 3910:1 
-0.137852288546406 133:1 556:1 600:1 890:1 3029:1 3528:1 
-0.3235453205727204 752:1 1988:1 2007:1 2043:1 3355:1 3633:1 
-0.1015380346812092 218:1 576:1 1463:1 2309:1 
-0.04853350788564596 1496:1 1825:1 2043:1 2066:1 3232:1 3742:1 3811:1 
-0.04435077542934351 549:1 789:1 803:1 
-0.2600678426001658 322:1 631:1 777:1 830:1 890:1 1603:1 1607:1 1626:1 1943:1 1966:1 3134:1 3393:1 3427:1 3894:1 
-0.03816072249617711 330:1 654:2 887:1 1553:1 1584:1 1678:1 1851:1 1863:1 1878:1 2084:1 2256:1 2344:1 2517:1 2815:1 3001:1 3174:1 3759:1 
-0.02496426654638136 542:1 588:1 754:1 811:1 1902:1 1961:1 3618:1 3742:1 3780:1 
-0.3235366638819172 1271:1 1988:1 2323:1 3571:1 
-0.7068046635837533 373:2 1053:1 1141:1 1304:2 1504:1 1826:1 1954:1 3929:2 
-0.1583590365655527 47:2 655:1 1170:1 1184:1 1424:1 1463:1 2052:2 
-0.2239698832817569 59:1 556:1 737:1 826:2 1023:1 1444:1 1546:1 1563:1 2185:1 3001:1 3267:1 3377:1 3775:1 
-0.004582474221945441 671:1 874:2 1949:1 1963:1 2030:1 3359:1 3615:1 3745:1 3780:1 
-0.1772907228758957 745:1 1013:1 1255:1 1949:1 2837:1 
-0.1458823793806915 375:1 932:1 1468:1 2043:1 2478:1 3742:1 
-0.1346543228646388 296:1 2007:1 2350:1 2519:1 
-0.1024571126434907 1079:1 1239:1 1463:1 1759:1 2109:1 2845:1 3139:1 3177:1 3780:1 
-0.3218115086915084 476:1 589:1 1007:1 1378:1 1825:1 2007:1 3742:1 3929:1 
-1 556:1 643:1 1444:2 2545:1 3599:1 
-0.05020586065765206 643:1 654:1 1267:1 1316:1 1471:1 1721:1 2138:1 2837:1 2846:1 3134:1 3742:1 3793:1 3818:1 
-1 18:1 542:3 556:1 654:1 698:1 699:1 894:1 1182:1 1334:1 1623:1 1825:2 1888:1 1988:2 2290:1 2602:2 2734:1 2812:1 3370:1 3377:1 3388:1 3491:1 3524:1 3538:1 3640:1 3742:3 3744:1 3847:1 3947:3 
-0.5261390904621644 288:1 289:1 541:1 1825:1 2840:1 2847:1 3869:1 
-0.1604136595554127 754:1 2043:1 3044:2 3077:1 3259:2 
-0.9556069745649668 30:1 1287:1 2185:1 3383:2 3898:1 3925:1 3929:1 
-0.09540708036364492 22:1 424:1 615:1 1211:1 1405:1 1549:1 1864:1 1949:1 2050:2 2317:2 2847:1 2857:2 3113:1 3505:1 3742:1 3780:1 
-0.3336095954141047 887:1 1053:1 1823:2 3261:1 3568:1 3849:1 
-0.02172875071029998 244:2 828:1 1399:1 1949:1 2043:1 2218:1 2488:1 2857:1 3029:1 3287:1 3759:1 
-0.1025317820849148 570:1 692:1 1066:1 1193:1 1304:2 1334:1 1399:1 1417:1 1499:1 1848:1 1980:1 1988:2 2652:1 2680:1 2685:1 3134:1 3136:1 3267:1 3524:1 3929:1 
-1 1316:1 2317:1 2847:1 3741:1 
-0.01715910031490133 549:1 739:1 1949:1 2630:1 3522:1 
-0.183019002815672 989:1 3768:1 
-0.5068856451668285 711:1 1153:1 1825:1 1988:1 2840:2 2847:1 3134:1 3522:1 
-1 2150:1 2420:1 3793:1 
-0.07422432082089374 155:1 163:1 301:1 446:1 835:1 1163:1 1546:1 1931:1 2050:1 2097:1 2222:2 3267:1 3393:2 3715:1 3872:1 
-0.1626123946453565 268:1 941:1 1444:1 2414:1 3599:1 
-0.08712161137253328 632:1 1504:1 
-0.06747900332199126 278:1 541:1 1011:1 1491:1 2073:1 2384:1 
-0.02633526532482407 336:2 462:1 1520:2 1661:4 1949:4 1985:1 2275:1 2323:1 2433:1 2652:2 3261:1 3323:1 3362:1 3609:1 
-0.3959626117569701 643:1 1100:1 1756:1 2073:1 
-0.02364696459980803 372:1 824:1 1304:1 1463:1 1988:1 
-0.5241203881634084 1980:1 3330:1 
-0.1407441051296282 27:1 544:1 661:1 817:1 1648:1 1786:1 1868:1 1949:1 2104:1 2145:1 2202:1 2652:2 3177:1 3342:1 3929:1 
-0.9250467736119012 542:1 1212:1 1463:1 1943:1 2797:1 2985:1 3119:1 3755:1 
-0.1121246495199011 71:1 227:1 382:1 662:1 805:2 1299:1 1486:1 1496:1 1603:1 1697:1 1848:1 1931:1 1949:1 1993:1 2051:1 2077:1 2201:1 2272:1 2602:2 2604:1 3442:3 3524:1 3534:1 3615:1 3659:1 3683:2 3742:1 
-0.2509897014083473 234:1 296:1 428:2 789:1 1053:1 1208:1 1424:1 1493:2 1943:1 1949:3 1988:1 2455:1 2627:1 2847:2 3028:1 3120:1 3475:1 3476:1 3522:2 3550:1 3742:1 
-0.2806781132712819 275:1 296:1 1603:1 2003:1 3455:1 
-1 1304:1 3551:1 3599:1 3793:1 
-0.01087554843420781 23:1 542:3 674:1 1141:1 1165:1 1193:1 1334:1 1570:1 1949:1 2638:1 3258:1 3524:1 3629:1 3913:1 3942:1 
-0.2100596415885666 381:1 556:1 1304:1 2193:1 2204:1 3780:1 
-0.5376270416883446 731:1 2847:1 3421:1 
-0.968178606579949 486:1 1018:1 1825:1 1980:1 3156:1 
-0.3879381320482637 41:1 223:1 1463:1 3452:1 3524:1 
-0.0525262812085358 634:1 1303:1 1304:2 2709:1 3505:1 
-0.6385021206958141 542:1 1334:1 3383:1 3406:1 3742:1 
-1 599:1 1219:1 1351:2 1549:1 1766:1 1825:1 1988:1 2087:1 2147:1 2217:1 2349:1 3123:1 3261:1 3505:1 3742:1 
-0.1969482093281107 57:1 514:1 716:1 750:1 1336:1 1444:1 1848:1 2414:2 2622:1 2652:1 2699:1 3393:1 3584:1 3698:1 
-0.2052708426529218 542:1 1075:1 1986:1 2081:1 3551:1 
-0.04379146841444898 65:1 68:1 307:1 322:1 654:1 1304:4 1826:1 1851:1 2050:1 2199:1 2629:2 3134:2 3548:1 3742:1 3835:1 
-0.2223400217541563 296:1 542:1 824:1 950:1 1328:1 1334:1 1405:1 1463:1 1499:1 1713:1 1988:1 2043:2 2050:1 2652:1 3248:1 3383:1 3640:2 3742:1 
-0.08695151432552448 1053:1 1521:1 2185:1 2604:1 2646:1 
-0.7117798579994887 356:1 2582:1 
-0.1159727936961184 824:1 1176:1 1617:1 2175:1 2575:1 3411:1 3773:1 
-0.6990811356972347 187:1 735:1 3435:1 
-0.2123758577081964 129:1 210:1 1521:1 3029:1 3134:1 
-0.2710159544740973 556:1 1857:1 2165:1 3454:1 
-0.0384580679806465 89:1 2064:1 2317:1 2548:1 
-0.04618488176521789 245:1 308:1 710:1 893:1 1083:1 1208:1 2164:1 2877:1 3565:1 3571:1 3715:2 3762:1 3806:1 3884:1 
-0.03757524215129361 177:1 1153:1 1304:1 3468:1 
-0.005731784313911113 391:1 1375:1 1661:1 1949:2 3830:1 
-1 965:1 1686:1 1949:1 1955:1 2142:1 2393:1 3383:1 3793:1 
-0.007772782558197403 492:1 544:1 1399:1 1468:1 1721:1 2252:1 2609:1 2707:1 2778:1 2849:1 3029:1 3393:1 3522:1 3715:1 
-0.1379691221578617 23:2 1012:2 2502:1 2707:1 
-0.05245890690860104 268:1 1176:1 1388:1 2048:1 3126:1 
-0.1210882511231442 1348:1 1549:1 1949:1 2073:1 2619:2 
-0.110520065191489 154:1 192:1 252:1 1007:1 1141:1 1591:1 1825:2 2286:1 2761:1 3000:1 3063:1 3134:1 3577:1 3799:1 3953:2 
-0.3113074653873942 1306:1 1825:1 1989:1 3134:1 
-0.4119955384575741 7:1 654:1 919:1 950:1 1591:1 1682:1 1868:1 1931:1 2602:2 2691:1 2849:1 3524:1 3742:2 3799:1 
-0.05181708937837587 1316:1 1692:1 3181:1 3633:1 
-0.4073227183707721 326:1 1949:1 2609:1 3599:1 
-0.04670004651519443 301:1 826:1 1095:1 1386:1 1444:1 2602:1 2860:1 2861:1 3029:1 3353:1 3380:1 3505:1 
-0.424956483812148 2885:1 
-1 6:2 32:1 169:1 296:1 1334:1 1444:1 1463:1 1661:1 1849:1 2107:2 2198:1 2215:1 2825:4 2961:1 3325:1 3362:1 3773:1 3780:3 
-0.4572876658600431 2502:1 2609:1 
-1 218:1 556:1 3742:1 
-0.1899675605614441 301:1 646:1 707:1 1287:1 1401:1 1908:1 1955:1 1988:2 2545:1 2602:1 3109:1 3652:1 3715:1 3778:1 
-5.211207308683474e-05 24:1 311:1 396:1 732:1 818:1 993:1 1175:1 1209:1 2278:1 2602:2 2735:1 2756:1 3182:1 3226:1 3286:1 3538:1 3613:1 
-0.4010300333898629 221:1 1299:1 3223:1 3742:1 3815:1 3886:1 
-0.03774601442564941 1825:1 1980:1 1987:2 2525:1 
-0.1071001774417906 374:1 1096:1 1895:1 2350:1 3765:1 3884:1 
-1 1661:1 3029:1 
-0.2136037381724015 309:2 1963:1 2847:1 3361:1 3741:1 3762:1 3847:1 3855:1 
-0.6774405494061547 118:1 556:1 818:1 1699:1 1825:1 2885:1 3793:1 
-1 1546:1 1661:1 
-0.04392374449151944 522:1 754:1 1004:1 1160:1 1299:1 1588:4 2007:1 2096:1 2590:1 3093:1 
-0.02432912001340813 1396:1 1863:2 1868:1 2008:1 2009:1 2548:1 2575:1 3486:1 3927:1 3948:1 
-0.1693669702375922 176:1 759:1 1549:1 2386:1 2657:1 2927:1 
-0.1977982752103412 279:1 1463:1 1468:1 1520:1 2563:1 3524:1 
-0.3963306560921903 117:2 1187:1 3741:1 3793:1 
-0.3088191380190115 245:1 308:1 366:1 611:1 797:1 1041:1 1137:1 1463:1 1883:1 1931:1 1980:1 2164:1 3327:1 3762:2 3806:1 3809:1 
-0.002547937141309325 273:1 525:1 737:1 789:1 1170:1 1553:1 2743:1 3677:1 3919:1 
-0.0369293063349353 1337:1 1868:1 2278:1 2652:1 3570:1 
-0.004301744048610005 541:1 1210:1 1254:1 1733:1 2223:1 
-0.2798306850599725 576:1 789:1 1316:1 1969:1 2007:1 2072:1 3935:1 
-0.1524361912280532 2984:3 
-0.3030748693139823 1382:2 1988:1 2043:1 3310:1 3768:1 3812:1 
-0.02039923169357942 71:1 159:1 306:2 355:1 1254:1 1374:1 1686:1 1700:1 1825:1 2486:1 2634:1 2636:1 2646:1 2675:2 2814:1 3350:1 3355:1 3369:1 3551:1 3554:1 3742:1 3929:1 
-0.3309909906081382 1018:1 1744:1 
-0.591644051465247 1537:1 2082:1 3418:1 
-0.2603686513885468 1980:1 1988:1 3452:1 
-0.5732781719997395 981:1 1578:1 1616:1 1825:1 1896:1 1931:1 3062:1 
-0.1623919603608843 499:1 544:1 1463:1 2198:1 2726:1 
-0.5549814622722533 218:1 887:1 1868:1 1986:1 3021:1 3551:1 3577:1 3683:1 
-0.1468655297751367 135:1 381:1 1159:1 1825:1 1831:1 1853:1 1949:1 2127:1 2180:1 2598:1 2615:1 3030:1 3099:1 3126:1 3456:1 
-0.6546088616071459 1834:1 
-0.1413230160587337 542:1 588:1 754:1 811:1 1902:1 1961:1 3618:1 3742:1 3780:1 
-0.4638293872619371 301:1 741:1 2840:1 3261:1 3524:1 3538:1 
-0.2034202860466524 1075:1 2142:1 3058:1 3089:1 
-0.09996501204419597 890:1 1655:1 1949:1 3340:1 3872:1 
-0.3449453976623416 3001:1 3528:1 3943:1 
-0.5501564790179088 2327:1 3770:1 
-0.08835357036300696 224:2 296:1 889:1 1399:1 1750:2 1868:1 1955:1 3439:2 3522:1 
-0.3197743349260059 1217:1 1661:1 3029:1 3421:1 3829:1 
-0.1389622845194579 611:1 946:1 1304:1 1825:1 1868:1 1949:1 2043:1 2669:1 2683:1 3625:1 3742:1 3744:1 3780:1 3939:1 
-0.9057352213694542 542:2 556:1 643:1 784:1 1163:1 1291:1 1463:1 1549:1 1955:1 2142:2 2333:1 2662:1 3388:1 3717:1 3947:2 
-0.3988094860840561 704:1 950:1 1022:1 1155:1 1399:1 1578:1 1988:1 2077:1 3095:1 3128:1 3563:1 3742:1 
-0.381370582847587 176:1 759:1 896:1 1285:1 3133:1 3804:1 
-0.08946957083591196 1306:1 2013:1 2194:1 
-0.670166488677723 654:1 2837:1 3905:1 
-0.3617770912560289 1467:1 3139:1 3738:1 
-0.2172347699568647 3541:1 3554:1 
-0.008209230481098383 529:1 1288:1 3592:1 3596:1 3886:1 
-0.6019552788469114 1549:1 2442:1 2602:1 3524:1 
-0.04214163599630924 599:1 1949:1 2003:1 3271:1 3570:1 3740:1 
-0.1985779969925587 51:1 157:1 2602:1 
-0.06073938598574504 954:1 1095:1 1242:1 2500:1 3296:1 3773:1 
-0.006428885024361948 1934:1 2402:1 3296:1 
-0.4215097805004436 783:1 
-0.2342915293154146 912:1 1405:1 1580:1 1825:1 2804:1 2959:1 3135:1 3762:1 3793:1 3921:1 
-0.1310634825774424 542:1 752:1 1132:1 1399:1 1613:1 1615:1 1788:1 1838:1 1855:1 1988:1 2002:1 2172:1 2448:1 2491:1 2942:1 3126:1 3568:1 3793:1 
-0.7725814967846781 1304:2 1503:1 1988:1 3127:1 
-0.5688766418129353 443:1 
-0.08640572913981173 218:1 786:1 889:1 2026:1 2272:1 3029:1 3174:1 3261:1 3267:1 3683:1 
-0.08634261414469736 238:1 1132:1 2381:1 2860:1 3183:1 3192:1 3831:1 
-0.1321598414600896 503:1 893:2 950:1 1193:1 1741:1 1803:1 2043:1 2139:1 2217:2 2947:1 3263:1 3370:1 3659:1 
-0.1494607568592187 940:1 1227:1 1825:1 3501:1 
-1 542:1 1187:1 1401:1 2966:1 3742:1 
-0.1783533701574078 658:1 690:1 1216:2 1862:1 1949:1 2185:1 2669:1 2839:1 2883:1 3519:1 3524:1 3929:1 
-0.1928799762690633 1284:1 2007:1 3261:1 3356:1 
-0.5295188491347188 759:1 1285:1 
-1 618:1 752:1 1931:1 1949:1 3762:1 
-0.2071801665081899 248:4 981:2 989:1 1104:1 1733:1 2734:1 3261:1 3327:1 3488:1 3595:1 3943:1 
-0.5977432497406888 893:1 1825:1 3174:1 3573:1 
-0.2740061567567522 372:1 803:1 1078:1 1648:2 1943:1 3393:1 
-0.1787090406941483 1394:1 1654:1 2269:1 2317:1 3071:1 3261:1 3759:1 
-0.1843941523479311 59:1 105:1 126:1 383:1 410:1 851:2 1053:1 1785:1 1825:1 1854:1 2256:1 2383:1 2500:1 2842:1 2852:1 2883:2 2897:1 3568:1 3929:2 
-0.04888986527531011 60:1 639:1 1334:1 3538:1 3692:1 3742:1 
-0.01362750065482884 510:1 1491:1 1653:1 2279:1 
-0.002400388325841039 352:1 499:2 599:1 1939:1 1988:1 2582:1 2650:1 3338:1 3742:1 
-1 296:1 657:1 1334:1 1918:1 1949:1 2439:1 2666:1 3383:1 3742:1 3793:1 3955:1 
-0.3860247840451852 763:1 1899:1 3476:1 
-1 607:1 1463:1 1868:1 2233:1 3524:1 3570:1 3935:1 
-0.02230938154428327 836:1 893:1 1848:1 3118:1 
-0.07242107256502292 599:1 736:1 869:1 2043:1 3077:1 3599:1 3895:1 
-0.360982471411369 1140:1 1478:2 1489:1 3116:1 3142:1 3486:1 
-0.08375147260940863 7:1 292:1 1107:1 2325:1 2961:1 3943:1 
-0.38895218648129 311:1 754:1 832:1 1282:1 2082:2 2356:1 2398:1 2414:1 3162:1 3224:1 3283:1 3393:2 3636:1 3723:1 3799:2 
-0.08693127836996652 654:1 1546:1 1811:1 2519:1 2837:1 2909:1 
-0.3824258610209528 921:1 3741:1 
-1 218:1 752:1 2217:1 
-0.3964005422717969 252:1 1334:1 1468:1 3029:1 3876:1 
-0.4488544142557588 1700:1 3742:1 
-0.8101140322569227 89:1 451:1 556:1 1661:1 1899:2 1931:1 2096:1 2970:1 3615:1 
-0.6142519151804108 1949:1 3600:1 
-0.1119565381959021 308:1 803:1 828:1 3742:1 
-0.005400231003904067 3741:1 3750:1 3799:1 3886:1 
-0.04456842176888406 1692:1 3065:1 3446:1 
-1 941:1 1438:1 1607:1 1685:1 1848:1 2250:1 2414:1 2514:1 3000:1 3158:1 3742:1 
-0.2421743742401261 382:1 1176:1 
-1 3538:1 3745:1 
-0.3235469954988058 308:1 1681:1 1825:1 1980:1 2847:1 3029:1 
-0.2376521213006654 52:1 54:1 149:1 234:1 478:1 1137:1 1440:2 1848:1 
-0.05562919292400013 950:1 1185:1 1399:1 1949:1 2507:1 3030:1 3238:1 
-0.04141903234818989 941:1 
-0.5208917900174811 556:1 886:1 950:1 1065:1 1520:1 1868:1 2082:1 2290:1 3390:1 3505:1 3882:1 3902:1 
-0.2547119718759638 818:1 2885:1 
-0.7418884193058799 632:1 1949:1 1980:1 2652:1 3898:1 
-0.8060018661950661 542:1 556:2 2159:1 3918:1 
-0.4662766340921144 803:1 1075:1 2052:1 
-0.8926281173601676 1304:1 1316:1 3089:1 
-0.7014960036663083 2689:1 3745:1 
-1 711:1 2327:1 3745:1 
-1 1336:1 
-0.6518291585439808 1542:1 3232:1 
-0.0188192191953925 1151:1 1451:1 1980:1 3126:1 3522:1 3524:1 
-0.2227593604703589 737:1 1007:1 1841:1 2155:1 2190:1 2718:1 3001:1 3180:1 3524:1 3551:1 3793:2 
-0.2023683192530698 28:1 148:1 417:1 608:1 698:1 755:1 805:1 989:1 1066:2 1113:1 1912:2 1924:2 2043:1 2202:2 2296:1 2426:1 2746:1 2755:1 3264:1 3383:2 3505:1 3640:1 3742:1 3782:1 3884:1 3886:1 3929:1 3935:1 
-0.06422498667993697 585:1 946:1 1378:1 1767:1 1969:1 3551:1 3587:1 
-0.1905604422115759 111:1 296:1 454:1 1107:1 1379:1 1403:1 2739:1 2847:1 3091:1 3206:1 3348:1 3377:1 3516:1 3524:1 3898:1 
-0.02314561413517706 2385:1 3745:1 
-0.1862180319098178 88:1 824:2 830:1 950:1 1260:1 1603:1 1825:2 1924:1 2018:1 2167:1 2168:1 2965:1 3259:1 3334:1 
-0.4261515872228067 476:1 865:1 1148:1 1868:1 2704:1 2857:1 2885:1 3538:1 
-0.06317927361381818 109:1 175:1 234:1 1444:1 1521:1 1549:1 1568:1 2040:1 2047:1 2609:1 2641:1 2998:1 3008:1 3089:1 
-0.1183287825964198 812:1 1496:1 2217:1 
-0.8050384311608615 2095:1 3778:1 
-0.05335276189801089 865:1 
-0.04790071111205164 397:1 1578:1 2963:1 
-0.06837643693362151 89:1 1118:1 1255:2 1336:1 2082:1 2529:1 2652:1 2983:1 3355:1 3524:1 3872:1 
-0.08507001537301276 403:1 950:1 989:1 1193:1 1304:1 1756:1 1825:1 1949:1 2043:1 2110:2 2272:1 2602:1 2641:1 2683:1 3198:1 3742:1 
-1 18:1 298:1 654:1 754:1 2003:1 3276:1 3538:2 3742:1 
-0.4457578041702858 1096:1 1214:1 3804:1 
-0.05136708435326278 1766:1 1844:1 2007:1 2233:1 2652:1 2689:1 3261:1 3356:1 
-0.4240669851033253 50:1 278:1 556:1 646:1 905:1 1153:1 1980:1 2142:1 2464:1 2652:1 3281:1 3615:1 3844:1 
-1 3849:1 
-0.0365658859296206 1988:1 2043:2 2127:1 2139:1 2180:1 2317:1 3191:1 3855:1 
-1 120:1 352:1 403:1 1401:1 
-0.03886360312886741 879:1 1132:1 2082:1 3161:1 3325:1 3793:1 
-0.9604897580464391 1668:1 
-0.008884969282950114 2826:1 3169:1 3524:1 
-0.9923565451308953 171:1 3538:2 
-0.08000296633424499 44:1 162:1 824:1 940:1 973:1 1061:1 1070:1 1268:1 1309:1 1578:1 1966:1 2082:1 2440:1 2575:1 2820:1 2922:1 3029:1 3230:1 3594:1 3780:1 3799:1 3803:1 3886:1 
-0.2915733734009948 654:1 2413:1 3840:1 
-0.245002451939074 818:1 993:1 1304:1 1988:1 2690:1 3742:1 
-0.08955579743241522 60:1 1030:1 1078:1 1603:1 1986:1 1987:1 2043:2 3742:2 3770:1 3882:1 
-0.6082284254317497 542:1 1066:1 1758:1 1825:2 1868:1 1918:1 1931:1 2840:1 3104:1 3343:1 3548:1 3744:1 3770:1 
-0.2563617968542874 1942:1 2002:1 2920:1 3793:1 3939:1 
-0.3489829133634618 175:1 540:1 654:1 955:1 2043:1 2052:1 2210:1 
-0.9055229956543741 556:2 646:3 1334:1 1549:1 1564:1 1570:1 1602:1 2194:1 2333:1 2690:1 2857:1 2937:2 2972:2 3742:2 3947:1 
-0.2142867321170464 1401:1 1405:1 1451:1 1980:1 2290:1 3555:1 
-0.7698054753431761 646:1 681:1 825:1 1825:1 2961:1 
-0.277025308443774 1404:1 1629:1 2007:1 3230:1 
-1 938:1 1401:1 1987:1 2059:1 3522:1 
-0.9632934376650015 187:1 548:1 1278:1 1616:1 1966:1 1968:1 2030:1 2230:1 2385:1 2414:1 2420:1 2747:1 3058:1 3361:1 3938:1 
-1 322:1 654:1 2151:1 2499:1 
-0.1619132843456032 244:1 752:1 991:1 1405:1 1518:1 1700:1 1730:1 1949:1 2221:1 2714:1 2910:1 3048:1 
-0.8401642741963193 125:1 1868:1 1980:1 2272:1 3261:1 3486:1 3599:1 
-0.9929704253976087 365:1 654:1 3130:1 3551:1 
-0.1002808506648493 936:1 1334:1 1451:1 1463:1 1825:1 1949:3 1988:1 2353:1 2486:1 2713:1 2985:1 3551:1 3570:1 3929:1 
-0.3658528946883262 33:1 544:1 1334:1 1337:1 1504:1 1750:1 1825:1 1965:1 2624:1 
-0.32128312999127 102:1 542:1 1287:1 1774:1 
-1 275:1 1988:1 2491:1 3755:1 
-0.2036529305133069 1065:1 1374:2 1990:1 3277:1 3383:1 
-0.1684925524647418 18:1 301:1 2043:1 2209:1 3388:1 
-1 32:1 654:1 1334:1 2107:1 2825:1 2961:1 3538:1 
-0.07517455198119434 25:1 1399:1 1480:1 1616:1 1825:1 1966:1 2202:1 2414:1 3793:1 
-0.02798132438062201 231:1 570:1 856:4 947:2 960:1 1196:1 1382:1 1542:2 1611:1 1955:1 2007:1 2104:1 2243:1 2279:1 2414:1 2514:1 2545:1 2609:1 2815:1 2866:1 2914:1 3393:1 3421:1 3886:1 
-0.1968492117415312 216:1 715:1 810:1 2272:1 2768:1 
-0.4245193661975738 1093:1 1313:1 1386:1 1851:1 1854:1 1949:1 2032:1 2393:1 2404:1 
-0.08528139211031649 383:1 884:1 1399:1 1463:1 1718:1 1988:2 2007:1 2377:1 2448:1 3107:1 3418:1 3942:1 
-0.2170182303973292 196:2 282:2 542:1 950:1 1405:1 2847:1 3134:1 3742:1 3770:1 3778:1 3825:1 
-0.1516897478064614 280:1 950:1 1172:1 2336:1 2623:1 3587:1 
-0.5145723162994417 522:1 727:1 1316:1 1482:1 1980:1 
-0.2176148749393284 654:1 721:1 1170:1 3762:1 
-0.08171864051192151 26:1 229:1 938:1 2384:1 2561:1 2609:1 
-0.07611968737147599 822:1 1401:1 1667:1 3325:1 
-1 654:1 1578:1 1949:1 3128:1 3615:1 
-0.1622666580441345 599:1 1998:1 2290:1 3017:1 
-0.5951350684036572 109:1 308:2 310:1 321:1 416:1 599:1 828:1 890:1 946:1 1053:1 1334:1 1444:1 1568:1 1653:1 1686:1 1699:1 1825:1 1913:1 1949:1 2180:2 2652:1 2758:1 2833:1 2928:1 2961:1 2983:1 3008:1 3551:1 3780:1 
-0.06348614160362306 218:1 308:1 824:1 828:1 1053:1 1193:1 1227:1 1294:1 1334:1 1825:1 2604:1 3148:1 3524:1 3886:1 
-0.2759533832467956 539:1 823:1 1325:1 1728:1 3134:1 3223:1 3259:1 3898:1 
-0.02249327512571598 60:1 1407:1 2317:1 3742:1 3935:1 
-0.9113738521389126 390:1 1190:1 2675:2 
-0.3843470628022335 162:1 556:4 611:1 646:2 654:1 1023:4 1191:1 1287:1 1313:1 1405:1 1542:1 1825:1 1943:2 1949:5 2167:1 2320:4 2333:1 2410:1 2440:2 2602:1 3290:1 3307:1 3621:1 3640:1 3682:1 3706:1 3742:1 3770:1 3780:1 
-0.7561658584811822 240:1 499:1 547:1 692:1 737:1 739:1 787:1 893:1 1334:2 1341:2 1355:1 1412:1 1449:1 1699:1 1913:1 1933:1 2135:1 2165:1 2166:2 2210:1 2243:1 2290:1 2655:1 2871:1 2926:1 3095:1 3312:1 3325:1 3355:1 3377:1 3452:1 3551:1 3780:1 3781:1 
-0.07010528904110833 3719:1 3933:1 
-0.5321652248238615 1405:1 1491:1 1786:1 2050:1 3193:1 3948:1 
-0.07961514122276991 1496:1 1981:1 2819:1 3048:1 
-0.001489255266077161 175:2 177:2 322:1 884:1 887:1 1178:1 1193:1 1261:1 1752:1 1858:1 1949:1 2194:2 2998:1 3393:1 
-0.1714848999372195 301:1 310:1 389:1 390:1 646:1 893:1 991:1 1424:1 1682:1 1766:2 1943:2 1980:1 2384:1 2602:2 3029:1 3713:2 3929:1 
-1 747:1 
-0.009989296138957986 360:1 744:1 1825:1 2065:1 3524:1 3835:1 3886:1 3890:1 
-0.005575223135508244 93:1 275:1 301:1 321:1 499:4 730:2 915:1 950:1 1388:1 1417:2 1424:1 1444:1 1644:2 1718:1 1794:2 1823:1 1825:2 1949:4 1988:7 2519:1 2602:1 3149:1 3324:1 3704:1 
-0.01591369649768596 2050:1 2599:1 3225:1 3886:1 
-0.6921398826621555 1401:1 1444:1 1728:1 1825:1 1998:1 3017:1 3659:1 
-0.3103690009299344 11:1 391:1 576:1 2344:1 
-0.3638422652040041 390:1 2120:1 3522:1 
-0.5445844845098038 1834:1 3401:1 3793:1 3889:1 
-0.08210479161053537 646:1 749:1 1722:1 1776:1 3791:1 3921:1 
-0.07994345729571072 57:1 1931:1 1949:1 1957:1 1988:1 2050:1 2325:1 2486:2 2831:1 3029:1 3154:1 3570:3 3599:1 3759:1 3929:2 
-0.004287282267256369 357:1 2335:1 3164:1 3367:1 
-1 654:1 1811:1 2486:1 
-0.2398463783722647 278:1 307:1 1826:1 1831:1 1853:1 1987:1 2059:1 3898:1 
-0.5162741360233756 643:1 960:1 965:1 1211:1 1304:2 1401:1 1955:1 1988:1 3004:1 3560:1 
-0.4573365048807257 599:1 1386:1 2762:1 3245:1 3522:1 
-0.0484525033816947 218:1 1478:1 1861:1 
-1 611:1 1578:1 1949:1 3128:1 
-0.001881505270218187 213:1 556:1 3033:1 
-0.008080571074168805 693:1 1334:1 1444:1 1603:1 2586:1 2652:1 2885:2 3085:2 3327:1 3689:2 3929:1 
-1 213:1 556:1 3033:1 
-0.03022627170961684 8:1 60:1 216:1 586:1 587:1 602:1 646:1 912:1 1254:1 1386:1 1966:1 2602:1 2641:1 2839:1 3534:1 3637:1 3886:1 3904:1 
-0.008728565786693484 99:1 416:1 1091:1 1173:1 2107:2 
-1 2082:1 3939:1 
-0.3326581282864443 599:1 663:1 962:1 2345:1 2487:1 2624:1 3570:1 3740:1 3929:1 
-0.02441806807261783 109:1 544:1 1334:1 1405:1 1444:1 1600:1 2290:1 2332:1 3008:1 3089:1 3355:1 3935:1 
-0.02368571224551454 694:1 1000:1 1174:1 1271:1 1525:1 2082:1 2217:1 3327:1 
-0.02969312983404454 238:1 555:1 565:1 1515:1 1554:1 1577:1 1633:1 1949:1 2107:1 2180:1 2272:1 2321:1 2664:1 3072:1 3100:1 3126:1 3221:1 3259:1 3608:1 3610:1 
-1 18:1 90:1 1949:1 
-0.04627340130690397 98:1 453:2 735:1 1942:1 2590:1 2989:1 3134:1 3327:1 3615:1 3781:1 3886:2 
-0.1551313283564041 1504:1 1549:1 1988:1 
-0.1361799199795411 169:1 800:1 3059:1 3063:1 3633:1 
-0.1380294172120418 147:1 
-0.07404496517248225 88:1 711:1 749:1 752:1 900:1 950:1 1017:1 1030:2 1031:1 1193:1 1226:1 1313:1 1316:1 1334:3 1444:1 1496:1 1825:2 1885:1 1949:2 2043:1 2153:1 2604:1 2724:1 2819:1 2978:1 3002:1 3522:1 3534:1 3615:1 3731:1 3780:1 3812:1 
-0.2349633571736162 690:1 1680:1 3267:1 3377:1 
-0.05292575821604695 1348:1 1592:1 2048:1 
-0.445130989438157 149:1 1219:1 1336:1 1397:1 1616:1 2602:1 3812:1 
-0.07164630724233706 2025:1 2403:1 
-0.1555684339483027 447:1 595:2 1018:1 1225:1 1438:2 1825:1 1949:1 1988:1 2602:1 3029:1 3283:1 3448:2 3538:1 3818:1 3831:1 3899:1 3905:1 
-0.1260722488984226 646:1 1007:1 1463:1 1895:1 3524:1 
-1 1733:1 2043:1 3383:1 
-0.02559222853486268 1063:1 1444:1 1686:1 1868:1 1980:1 2541:1 2622:2 2718:1 3134:1 3492:1 
-0.03369807273709427 224:1 301:1 1081:1 1379:1 1399:1 1653:1 3781:1 3803:1 
-0.1270328537239192 60:1 3033:1 3537:1 
-0.031676602360197 143:1 372:1 1648:1 2043:1 2563:1 
-0.07101573551259091 565:1 1558:1 1568:1 1613:1 3271:1 3277:1 3283:1 
-0.08995416984024544 322:1 889:1 1272:1 1888:1 1935:1 3715:1 
-0.1656268306032113 109:1 1539:1 2064:1 2082:1 3008:1 3161:1 3747:1 
-0.237668701207463 149:1 208:1 257:1 544:2 643:1 754:1 840:1 1211:1 1261:1 1497:1 1653:1 2043:1 2082:1 2509:2 2655:1 2942:1 3001:1 3093:2 
-0.04000271655940565 601:1 807:1 3294:1 3373:1 
-0.1358164910191934 28:1 83:1 275:1 403:1 520:1 582:1 608:1 690:1 823:1 824:1 826:2 1141:1 1422:2 1949:1 2007:1 2120:1 2323:1 2368:1 2500:1 2602:1 2926:1 3199:1 3398:1 3505:1 3512:1 3751:1 3835:1 3929:1 
-0.9840089553409549 556:1 824:1 1214:1 1766:1 2050:1 2290:1 3389:1 3741:1 3742:1 
-0.2352372649816055 1322:1 1400:1 
-0.295626482371546 1022:1 1075:1 1825:1 1980:1 2007:1 2290:1 2486:1 2707:1 3061:1 3377:2 
-0.03123164016403182 1479:1 1888:1 2049:1 3283:1 3878:1 
-0.6172925063649396 436:1 599:1 3287:1 
-0.4825939548132963 947:1 
-0.5804265165574651 248:1 556:1 1316:1 1463:1 1810:1 2124:1 2801:1 2811:1 3059:1 3134:1 3483:1 3659:1 3742:1 
-0.9616015757630747 592:1 1517:1 2652:1 3036:1 3064:1 3114:1 3261:1 3780:1 
-0.3308211971944092 486:1 1303:1 3014:1 
-1 321:1 950:1 1379:1 1486:1 1578:1 2037:1 
-0.008175085286555644 198:1 416:1 611:1 824:1 1104:1 1585:1 1717:1 1863:1 1949:1 2050:1 2835:1 3793:1 3799:1 
-0.04110585458062903 1116:1 2624:1 3812:1 
-0.3366150340415249 1482:2 1868:1 1988:1 2638:1 2942:1 3045:1 3267:1 3327:1 3568:1 3615:1 3792:1 
-0.01692888086456214 345:1 993:1 1162:1 1386:1 1660:1 1966:1 3886:1 
-0.3021964446490559 382:1 391:1 889:1 973:1 1542:1 3001:1 3508:1 
-0.1199491390019311 115:1 317:1 684:1 2007:1 2440:1 
-0.04444075130602933 2604:1 
-0.1329610079008895 87:1 273:2 1178:1 2194:2 3505:1 
-0.003913466053672001 155:1 289:1 1052:1 1118:2 1330:1 1682:1 1762:1 1933:2 2669:1 3446:1 3715:1 
-1 418:1 1825:1 2602:1 3446:1 
-0.2031788553652903 422:1 2127:1 2615:1 2739:1 3249:1 3354:1 
-1 542:1 646:1 1444:1 3599:1 3793:1 
-0.1103952313783997 1068:1 1949:1 2183:1 2837:1 3282:1 
-0.06126258789853075 38:1 87:1 510:1 676:1 1382:1 1542:1 1854:1 2919:1 3672:1 3799:1 
-0.2645604227307127 667:1 758:1 1137:2 1546:2 1834:1 1949:1 2381:1 2467:1 3362:1 3775:1 
-0.03266185532795536 1206:1 1400:1 1894:1 1998:1 3008:1 3017:1 3733:1 
-0.1820445720191221 296:1 1304:1 3134:1 3706:1 3898:1 
-0.1112401363281747 323:1 1153:1 1831:1 2007:1 2313:1 2602:2 3684:1 
-0.005528127775292488 1160:1 1176:1 1823:1 2048:1 3055:1 3818:1 
-0.4087840018982222 1399:1 1424:1 1463:1 1803:1 1949:1 2043:1 2142:1 3089:1 
-0.3279478645185765 252:1 775:1 1193:1 
-0.01041352114708075 633:1 1949:1 2837:1 
-0.05424402786014024 632:1 3753:1 
-0.1990242600391679 228:1 1825:1 1848:1 2725:1 2840:1 2963:1 3262:1 3528:1 3770:1 
-0.6130528580521885 2183:1 3524:1 
-1 541:1 1733:1 
-0.3073911076475018 608:1 2554:1 
-0.03841082194080206 266:1 372:1 500:1 1648:1 2673:1 
-0.2214951551801347 3457:1 3684:1 
-1 3388:1 3640:1 
-0.04845118483654793 245:1 308:1 805:1 1181:1 1438:2 1653:1 1697:2 1825:1 1875:1 2003:1 2007:1 3130:1 3442:1 3647:1 3690:1 3741:1 3759:1 
-0.2655835680047406 223:1 789:1 1463:1 3413:1 
-0.6374205241484007 125:1 478:1 887:1 2290:1 2384:1 3715:1 
-0.2888582724960074 122:1 538:2 2414:1 
-0.1003615096455487 825:1 981:1 989:1 3261:1 
-0.07101677914025549 925:1 989:1 1756:1 2718:1 
-0.07614282685842672 1299:1 1316:1 1463:2 1949:2 1980:1 2147:1 2931:2 3063:1 3577:1 
-0.2893481001593515 654:1 2290:2 2292:2 
-0.2368509411207959 296:1 792:1 1216:1 1862:1 1868:1 2750:1 3778:1 
-0.04487323744572756 7:1 40:1 570:1 1160:2 1313:1 1322:1 1424:1 1640:2 1713:2 1868:1 1943:1 2007:1 2043:1 2058:1 2172:1 2176:1 2269:1 2737:1 3113:1 3119:1 3327:1 3505:1 3688:1 3867:1 3929:1 
-0.2518958112505399 1065:1 1306:1 1381:1 1504:1 1888:2 3715:1 
-0.2465898774633852 567:2 1292:1 1963:1 2802:1 3029:1 3565:1 3793:1 
-0.1991437363308624 611:1 2582:2 2652:3 2715:3 3261:2 3742:2 
-0.05079985365211887 1825:1 2052:1 2893:1 
-0.6750925465678284 176:1 3472:1 
-0.5886272503075665 989:1 2486:2 2577:1 3287:1 
-0.8141759771784918 654:1 2690:1 
-1 486:1 1018:1 1482:1 3793:1 
-0.1404755540263359 220:1 428:1 889:1 1471:1 1521:1 1718:1 1868:1 1949:1 2047:1 2081:1 2609:1 3524:1 
-0.3008655854098841 818:1 2053:2 2885:3 3029:1 3261:1 3524:1 
-0.5329179620636633 654:1 950:1 1148:1 1820:1 1897:1 2665:2 2829:1 3388:1 3541:1 3741:1 3793:2 
-0.01074522441655446 1349:1 1405:1 1834:1 2381:1 3001:1 3224:1 
-1 1661:1 
-0.5228466327083566 643:1 1500:1 1770:1 3793:1 3947:1 
-0.07452992283576354 731:1 1431:1 3401:1 3955:1 
-0.1194334189812698 177:1 227:1 373:1 449:1 890:1 1304:2 1537:1 1603:2 1884:1 2482:1 3380:1 3417:1 
-0.08833156952131212 655:1 1825:1 2007:1 2602:2 3388:1 3742:1 
-0.1091924624445529 646:1 1334:1 1603:1 1896:1 3929:2 
-0.01548474211631378 1091:1 1304:1 1349:1 1868:1 2942:1 3310:1 
-0.0259650226785265 1193:1 2732:1 2791:1 3157:1 3793:1 
-0.0401129227165964 20:1 50:1 149:1 180:1 400:1 606:1 867:1 1093:1 1170:1 1214:1 1411:1 1725:1 1868:1 2043:1 2110:1 2155:1 2609:1 2689:1 2735:1 2741:1 2801:1 2852:1 2913:1 3029:1 3243:2 3253:1 3358:1 3401:2 3683:1 
-0.1310878041319672 1331:1 1421:1 1980:1 3325:1 3781:1 
-0.09732359256119401 761:1 1978:1 2142:1 2384:1 
-0.5466304869409616 940:1 1304:1 1444:1 1661:2 1851:1 2043:1 2652:1 2871:1 3560:1 
-0.1023911037348972 69:1 818:2 824:1 852:1 1825:1 1999:1 2082:1 2185:1 2885:1 3029:2 3724:1 
-0.3660713271898406 25:1 32:1 544:1 739:1 1463:1 1825:1 1868:1 1949:1 2290:1 2486:2 2641:1 3154:1 3570:1 3734:1 3929:2 
-0.8721664352548328 2116:1 
-0.01961904152950916 747:1 1386:1 1899:1 2998:1 3261:1 3327:1 3418:1 3793:1 
-1 744:1 1386:1 1658:1 2007:1 2602:1 3029:1 3170:1 
-0.1787445123386223 40:1 338:1 382:1 1086:1 1178:1 1374:1 1386:1 1517:1 1793:1 1868:1 1943:1 2007:2 2623:1 2703:1 2815:1 3067:1 3855:1 3882:1 
-0.3100626858516112 887:1 1065:1 3473:1 3474:1 
-1 75:1 542:1 556:1 1405:1 1971:1 2081:1 2922:1 3279:1 3341:1 3380:1 3505:1 3522:1 3742:1 3872:1 3955:1 
-0.05306683422376853 24:1 169:1 220:1 383:3 425:1 428:1 789:1 790:1 940:1 1193:1 1316:1 1493:1 1766:1 2233:1 2384:1 2422:1 2847:4 3029:1 3068:1 3433:1 3452:2 3550:1 3551:1 3588:1 
-0.1001165747988755 73:1 2627:1 3935:1 
-0.1293275936142066 599:1 1400:1 1635:1 1853:1 3130:1 
-0.1464283377332109 884:1 991:1 1851:1 2195:1 3393:1 
-1 3383:2 3640:1 
-0.05793964128192331 1482:1 1493:1 3484:1 3551:1 3674:1 3812:1 3939:1 
-0.3166509071927428 792:1 824:1 1397:1 1463:1 1493:1 1522:1 1603:1 1949:2 2043:1 2734:1 3551:1 3793:1 
-0.04407601486680838 239:1 499:1 792:1 1513:1 1920:1 1980:1 3524:1 
-0.3637574170582415 1104:1 1661:1 1974:1 3595:1 
-0.01377072494836364 977:1 1298:1 1313:1 1468:1 1785:1 1825:1 3025:1 3431:1 
-0.2591229507334196 296:2 887:1 1463:2 2058:2 2233:1 2454:1 2604:1 3740:1 3866:1 3886:2 
-0.01983279669916812 94:1 223:1 585:1 1504:1 1949:1 2151:1 3184:1 
-0.3244399575108652 556:2 1109:1 1802:1 2512:1 2554:1 3040:1 3599:1 
-0.1336913607230582 1327:1 1868:1 2002:1 3551:1 3741:1 3780:1 
-0.3490300438067049 1170:1 1638:1 1834:1 2381:1 2599:1 3099:1 3551:1 3833:1 
-0.07466492142493109 99:1 203:1 404:1 1589:1 2007:1 3383:1 
-0.01103912925789561 171:1 304:1 408:1 1131:1 1276:1 1304:1 1401:1 1463:2 1730:1 1855:1 1949:1 2292:1 3001:1 3156:1 3331:1 3568:1 3605:1 3715:1 
-0.1532726683990572 615:1 1107:1 2205:1 3576:1 
-1 556:1 643:1 
-0.01150570279590435 87:1 1025:1 1050:1 1719:1 2043:1 3161:1 
-0.3903307352313604 99:1 1260:2 2840:1 
-0.06518005552587998 1439:1 1532:1 2007:1 2174:1 2475:1 3548:1 3551:1 3762:34 
-1 2202:1 3599:1 
-1 296:1 741:1 3886:1 
-0.3320613580360569 476:1 485:1 542:1 1463:2 1611:1 2190:1 2292:1 2714:1 2910:1 3355:1 
-0.6728107116614882 1617:1 1949:1 2217:1 2412:1 3793:1 
-1 542:1 950:1 2142:1 3264:1 3276:1 3327:1 3388:1 3742:1 3780:2 
-0.57685638300662 763:1 3551:1 3793:1 
-0.723146070280108 2007:1 2486:1 3075:1 3292:1 3505:1 3551:1 3615:1 3929:1 
-0.2585670635784576 993:1 1228:1 1949:1 2238:1 2925:1 3134:1 3271:1 3291:1 3734:1 
-0.5628415775176301 243:1 1811:1 2082:1 
-0.1882973807857401 26:1 296:1 587:1 1131:1 1299:1 1929:1 2478:1 3102:1 3836:1 
-0.13769301589639 648:1 1316:2 1349:1 2043:1 2217:1 2623:1 3388:1 3615:1 3700:1 3742:1 3898:1 
-0.0422192925437118 149:1 900:1 2652:1 
-0.2304539143727505 57:2 228:1 289:1 1174:1 1440:1 2486:1 2725:2 3262:1 3327:2 3755:3 3793:1 
-0.2892164664800395 1668:1 1776:1 1802:1 1825:1 1949:2 2554:1 2652:1 2734:1 3524:1 3929:1 
-0.2365103971956027 1468:1 1521:1 
-0.1145347433794925 1176:1 1195:1 1263:1 1521:1 2048:1 
-0.2996744204164789 267:2 1141:1 1466:1 1681:1 2433:1 3006:3 3137:1 3887:1 3913:1 
-0.1647045875179166 1341:1 1603:1 3781:1 
-0.07209278227923513 950:1 1309:1 2648:1 3344:2 3715:2 
-0.0581507411289417 789:1 1463:2 1707:1 1949:1 2011:1 3266:1 3482:1 
-0.2371965321003631 88:2 326:1 486:3 814:1 889:1 974:1 1137:1 1313:1 1401:1 1529:1 1550:1 1825:1 1848:1 1920:1 2602:3 2692:1 2818:1 3033:1 3048:1 3134:1 3480:1 3644:1 3818:1 
-0.9146671760095211 88:1 654:1 1148:1 1542:1 2077:1 2665:2 2829:1 3388:1 3741:1 3793:1 
-0.5184713963615262 391:1 556:1 1630:1 1731:1 1876:1 3793:1 
-0.5843291493642875 544:1 1868:1 2040:1 2602:1 3029:1 3570:1 
-0.06437928897696632 634:1 1303:1 1613:1 2166:1 2926:1 3935:1 
-0.1518940860280194 754:1 1053:2 1334:2 1493:1 1600:1 1756:1 1825:1 2180:1 
-0.1013932368349579 531:1 983:1 990:1 1478:1 1546:1 1949:4 1988:2 2190:2 3271:2 3759:1 
-0.02611981272737719 114:1 165:1 756:1 989:2 1170:1 1756:1 1868:1 2077:1 2139:1 2217:1 2290:1 3029:1 3176:1 3518:1 3615:1 3872:1 
-1 941:1 1868:1 2048:1 2717:1 3665:1 
-0.4518906379091852 824:1 1896:1 2082:1 3299:1 3793:1 
-0.3994973257127686 1316:1 1401:1 1955:1 3271:1 3615:1 
-0.3585487826528123 741:1 1176:1 2048:1 2168:1 2431:1 3503:1 3783:1 
-0.281419904970921 721:1 1031:1 1551:1 2082:1 2420:1 2582:1 2602:1 3632:1 
-0.2792488826235834 539:1 544:1 586:1 904:1 950:2 1146:1 1308:1 1546:1 1636:1 1793:1 1825:1 1868:1 2043:2 2653:1 3134:4 3226:1 3353:1 3380:1 3524:1 3625:1 
-0.3351166643495701 1000:1 2048:1 2168:1 3380:1 3528:1 3783:1 
-0.04583033453691767 314:1 1884:1 2699:1 
-0.0288916538908844 932:1 950:1 1866:1 
-0.03472627255850246 51:1 391:1 1803:1 2047:1 2317:1 3271:1 3588:1 
-0.03577079214831402 171:1 244:3 311:2 1468:1 1868:1 2168:2 3683:1 
-0.2094236248224415 377:1 1107:1 1193:1 1405:1 1417:2 1949:1 1988:1 3599:2 
-0.1326014825476182 234:1 826:1 1104:1 1463:1 2073:1 3139:1 3770:1 
-0.1100385935444013 35:1 186:1 631:1 908:1 1213:1 1304:2 1515:1 1661:2 1851:1 1949:1 3029:1 3134:1 3227:1 3380:1 3394:1 3615:2 3775:1 3927:1 
-0.2461915174193433 1590:1 1825:1 3029:1 
-0.08731804378075976 7:1 25:1 93:2 219:1 257:1 299:1 416:1 500:1 716:1 739:1 1183:1 1219:1 1299:1 1334:1 1336:2 1444:1 1486:1 1537:1 1661:1 1954:1 2051:1 2077:1 2269:1 2652:1 2690:1 2942:1 2961:1 3029:1 3089:1 3095:1 3355:3 3497:1 3527:1 3884:2 3886:1 
-0.1301100684914729 24:1 313:2 366:1 658:1 669:1 887:1 1219:1 1260:1 1463:1 1949:3 2064:1 2545:1 2652:1 2732:1 2762:1 2920:1 3114:2 3145:1 3259:1 
-0.07441447633947028 270:1 1261:1 1969:1 2825:1 
-0.05049429736512653 1855:1 2889:1 3040:1 3446:1 
-0.120508134239938 313:1 921:1 1304:1 2005:1 2920:1 2945:1 3114:1 
-0.1349184300869707 2217:2 
-0.9085311004420888 1387:1 3770:1 3892:1 
-0.7243818328803194 1260:1 3259:2 
-0.1391936798143411 328:1 795:1 2213:1 2734:1 
-0.08975803480208204 1444:1 1624:1 1868:1 2043:1 2942:1 3077:1 3323:1 3895:1 3904:2 3927:1 
-0.1297418754313215 218:1 2420:1 2491:1 3133:1 3234:1 3524:1 
-1 259:1 984:1 2007:1 
-0.1164454640583305 218:1 538:1 887:1 1304:1 1755:1 1949:1 1986:1 2082:1 3089:1 3201:1 3424:1 3615:1 
-0.7979095646834976 542:1 2077:1 3095:1 3947:1 
-1 2168:1 3780:1 3783:1 
-0.6334478100074988 1463:1 2652:1 3402:1 
-0.01092654892176641 989:1 1581:1 1754:1 3271:1 
-0.3763563223008585 1181:1 
-0.1099122890171769 149:1 711:1 947:1 1313:1 2202:1 2602:2 2680:1 3746:1 3780:1 3793:2 
-0.09018896212992436 192:1 196:1 476:1 522:1 701:1 788:1 1463:1 1825:1 2573:1 2910:4 3268:1 
-0.4513603734466049 308:1 654:1 989:1 1549:1 2837:1 3267:1 3380:1 3816:1 3886:1 3918:1 
-0.07810858858995057 263:2 991:1 1520:1 2582:1 2652:1 3034:1 3134:1 3742:2 3818:1 
-0.03583890252528913 234:1 2317:1 2445:1 3029:1 3431:3 3524:1 
