svm_type c_svc
kernel_type linear
nr_class 2
total_sv 286
rho -1.04979
label 0 1
nr_sv 238 48
SV
0.08944824001896976 173:1 643:1 1211:1 1955:1 2243:2 2292:1 3062:1 3325:1 3355:2 
0.09598865150409996 140:1 319:1 615:1 824:1 1493:2 2412:1 3074:1 3113:1 3810:1 
0.8363726272678058 1473:1 
0.206672713734359 1211:1 1825:1 2320:1 3079:1 3780:1 3816:1 
0.337025179299062 684:1 
0.009843914502628786 740:1 1299:1 2007:1 2563:1 2602:1 3451:1 
0.05628234132329094 646:1 728:1 1457:1 1463:4 1965:1 2014:1 2227:1 2655:1 3029:2 
0.02367818796350345 285:1 1546:1 2657:1 2928:1 3021:1 
0.002656916896016588 14:1 1460:1 3063:1 3505:1 3706:1 3742:1 
0.080637820371546 711:1 728:1 2007:1 2636:1 
0.01588876030565065 616:1 804:1 1131:1 1231:1 1250:1 1323:1 1386:1 1525:1 2233:1 2697:1 2813:1 3505:1 
0.03461233738073086 646:1 682:1 1399:1 1491:1 1643:1 1851:1 1863:1 1946:1 1949:1 2007:1 2811:2 3029:1 
0.0139560945896307 1463:1 1821:1 2573:1 3063:1 
0.0403354554129201 137:1 331:1 462:1 623:1 889:1 903:1 1168:1 1193:1 1348:1 1848:1 1949:1 2003:1 2180:2 2586:1 3040:1 3354:1 3364:1 3584:1 3812:1 3866:1 
0.3187903742515271 1264:1 1493:1 1603:1 1640:1 3074:1 
0.004202336773709136 24:1 331:2 1681:1 1713:1 1854:1 2010:1 2491:1 2573:1 2602:1 2819:1 2847:1 3266:1 3505:1 
0.001351438448753337 369:1 680:1 1273:1 1374:1 1521:1 2745:1 3072:1 
0.8654707003382649 3905:1 
0.1660441653756733 789:1 1966:1 2970:1 3589:1 
0.002695133882346964 1264:1 1511:1 2045:1 3505:1 3649:1 
0.006885293496124972 1396:1 1689:1 2922:1 3256:1 3905:1 
0.008612262560699455 210:1 218:1 1334:1 1856:1 1980:1 2344:1 2414:1 2616:1 2811:1 3029:1 
0.004090572127006793 8:1 275:1 1133:1 1478:1 1986:1 1988:2 2462:1 2491:1 2604:1 3461:1 3742:1 
0.08014454025830917 144:1 1257:1 1482:1 2702:1 
0.1577778079633101 684:1 3074:1 3417:1 3799:1 
0.01075738006035772 1437:1 1509:1 1617:1 2292:1 3355:1 3615:1 
0.00921265062265899 654:1 1224:1 2664:1 3555:1 
0.05205493202982774 184:1 1183:1 1334:1 2275:1 2491:1 2652:1 3935:1 3955:1 
0.1061292634011335 175:1 1201:1 1482:2 2042:1 2046:1 3598:1 
0.07261986861052325 462:1 482:1 1378:1 2007:2 2493:1 3354:1 
0.002792683164335519 1853:1 1980:1 1993:1 3241:1 
0.0384171459716335 382:1 654:1 1199:1 1855:1 1868:1 1949:1 1988:1 2047:1 2082:1 2503:2 3715:1 
0.04711739928239252 541:1 2938:1 3037:1 3228:1 3780:1 
0.1671344136531854 1549:1 1988:1 2007:1 3551:1 3649:1 
0.04177805577012732 641:1 1402:1 1958:1 2491:1 3486:1 3804:1 
0.03767075083443135 145:1 669:1 1271:1 1424:1 1504:1 1580:1 1949:1 1988:2 3134:1 3271:1 3715:1 
0.02217874911566922 28:1 890:1 1524:1 3505:1 
0.02415812973733781 684:1 1493:1 3074:2 3587:1 
0.05075365459692206 196:1 3067:1 3113:1 3706:1 
1 2007:1 3524:1 
0.3789237629214812 684:1 3074:1 
0.02327818459220749 739:1 2018:1 2362:1 
0.1086992578723355 2714:1 3810:1 3898:1 
0.1188189751577462 145:1 1208:1 
0.05715124642220887 654:2 1504:1 1949:1 2852:1 3615:1 
0.07296704340707075 145:1 1374:1 2007:1 3241:1 3869:1 
0.1995800782713016 234:1 556:1 1407:1 
0.2981685179882455 145:1 296:1 
0.2693031549457422 239:1 1304:1 2194:1 
0.02711640148141671 296:1 935:1 1360:1 3886:1 
0.8669185487880176 1546:1 2043:1 
0.005965460127368953 462:1 522:1 1397:2 1407:1 1542:1 1764:1 1942:1 2180:1 3736:1 
0.002548978883719068 666:1 763:1 2414:1 3299:1 3417:1 
0.05372065179619947 88:1 239:1 522:1 981:1 1165:1 1334:1 1399:1 1463:1 1603:1 1617:1 1739:1 1811:1 1980:1 2017:1 2073:1 2655:1 2732:1 2840:1 2944:1 2973:1 2983:1 2984:1 3103:1 3109:1 3310:1 3377:1 3475:1 3801:1 3847:1 
0.01276438380388963 1158:1 1942:1 3534:1 3568:1 3637:1 
0.009788226050816831 654:1 1785:1 2138:1 3449:1 
0.05737273014525085 245:1 800:1 824:1 1399:2 1617:1 1884:1 1962:1 2151:1 2486:1 2568:1 3481:1 3551:2 3615:1 3643:1 
0.002723816022628744 1872:1 2386:1 2652:1 3819:1 
0.03221667272004854 296:1 2734:1 3514:1 
0.04551888929816503 278:1 1546:1 1980:1 2857:1 
0.03537596422987879 462:1 1101:1 1225:1 1334:1 1427:1 1945:1 2243:1 3647:1 3796:1 
0.03154788187939452 548:1 608:1 629:1 941:1 950:1 997:1 1334:1 1424:1 1679:1 1848:1 1949:1 2502:1 3505:1 3742:1 3796:1 3905:1 
0.7393539549482349 921:1 3742:1 
0.01666247355477289 242:1 295:1 741:1 1141:1 1282:2 1334:1 1854:1 1988:1 2609:1 2655:1 2984:1 3094:1 3490:1 3780:1 
0.02741303364377968 626:1 769:1 1053:1 1954:1 3148:1 
0.03776387050689672 690:1 731:1 969:1 2043:1 2138:1 2144:1 3518:1 
0.2147821168781968 542:1 611:1 888:1 2374:1 
0.03419118334540298 3079:1 3388:1 
0.03582943871260393 200:1 1203:1 3194:1 3505:1 3947:1 
0.2417407119367818 2151:1 2690:1 3505:1 
0.08434031136642532 1949:1 1988:1 
0.1654255923300665 542:1 1825:1 1949:1 2327:1 3670:1 3927:1 
0.02896346628559865 119:1 1868:1 2942:1 3263:1 
0.1061047501395891 2040:1 2142:1 2290:1 3089:1 3327:1 3780:1 3793:1 
0.02650417613095767 28:1 165:2 828:1 944:1 1089:1 1388:1 1870:1 2057:1 2137:1 2207:1 2368:1 2603:1 3006:1 3223:1 
0.0304648283202501 194:1 654:1 1728:1 1885:1 3796:1 
0.097909579114837 424:1 462:2 889:1 1980:1 1988:1 2115:1 2600:2 3615:1 
0.121797665738811 556:1 1010:1 1138:1 2647:1 
0.02433764527096963 257:1 301:1 1170:1 1336:1 2217:1 2485:1 
0.0001546712996054467 2290:1 2816:1 
0.03864014498415527 71:1 372:1 792:1 950:1 1191:1 1868:1 1949:1 2272:1 2290:1 2699:1 2942:1 3134:3 3327:2 3551:1 3741:1 3778:1 3793:1 
0.00564183931362441 30:1 342:1 447:1 461:3 556:1 1825:1 2074:1 2720:1 2908:1 2970:1 3905:1 3925:1 
0.0004113001558321728 16:1 1721:1 2075:1 2602:1 2735:1 2918:1 3947:1 
0.009280345336306574 30:1 511:1 553:1 1307:1 1463:1 2064:1 3063:1 3741:1 
0.01093729025782312 154:1 605:2 1949:1 1988:1 2050:1 2625:1 3095:1 3438:2 
0.0580726524925919 757:1 814:1 2652:1 3270:1 
0.009771909848695073 28:1 1463:1 1465:1 1537:1 2003:1 2857:1 3886:1 
0.08161987277833199 740:1 1405:1 3350:1 3913:1 
0.1363110515004608 615:1 2413:1 3715:1 
0.032974764486897 872:2 1949:1 3717:1 
0.02829361538525579 218:1 606:1 1520:1 1728:1 1965:1 2007:1 2268:1 2339:1 3177:2 3267:1 3888:1 
0.04601972492152694 89:1 1700:1 1774:1 3334:1 
0.06205762117857322 1066:1 1980:1 2599:1 
0.0320088884222085 634:1 779:1 1379:1 1486:1 1578:1 1868:1 2037:1 2226:1 3258:1 3538:1 
0.02724985186265898 1825:1 3076:1 3354:1 3780:1 
0.0686583642994601 1949:1 2007:1 2602:1 3381:1 
0.1360918256298176 2290:1 
0.02346374637961923 704:1 938:1 950:1 1988:1 2074:1 2652:1 
0.05989413015177902 1053:1 1081:1 1708:1 2057:1 2180:1 3373:1 3589:1 3791:1 
0.09764501942979065 3947:1 
0.02969539774138267 755:1 1542:1 2007:1 2958:1 3251:1 3361:1 3417:1 3715:1 3764:2 
0.05502705804934645 540:1 1868:1 3538:1 
0.08089661117920599 1185:1 1191:1 2052:2 2104:1 3146:1 3311:1 3817:1 
0.02386493410451487 218:1 1334:1 1496:1 2735:1 
0.02893045734669619 631:1 1322:1 2537:1 3001:1 3780:1 
0.0244190549148763 118:1 219:1 322:2 492:1 544:1 661:1 667:1 681:1 756:1 1219:1 1281:1 1536:1 1537:1 1542:1 1546:3 1825:1 1924:1 1931:1 2099:1 2500:1 2602:2 2634:1 2638:1 3218:1 3418:1 3599:1 3736:1 3778:1 3791:1 3872:1 3884:1 
0.09483012020334784 556:1 2061:2 
0.1884695971295702 3525:1 3780:1 
0.2647237266187255 1868:1 2715:1 3029:1 3780:1 
0.03104850738489971 486:1 1287:1 1949:1 2043:1 2297:1 3134:1 3457:1 3610:1 3620:1 3780:1 
0.05857872216859138 2491:1 3266:1 
0.0211380160141453 1055:1 3522:1 3943:1 
0.158753840428868 72:1 1737:1 1949:1 2669:1 3780:1 
0.02361216056353064 219:1 846:1 933:2 1163:1 1463:1 1496:1 1537:1 1546:2 1868:1 2222:1 2485:1 2966:1 3156:1 3218:2 3555:1 3770:1 3791:2 3828:1 3884:1 3929:1 
0.1015894628051668 58:1 2007:1 2374:1 2439:1 2464:1 3530:1 
0.2007687670571491 155:1 1001:1 3169:1 3715:2 3803:1 
0.007326891000453006 1078:1 1986:1 
0.0980951005583327 32:1 272:1 1304:1 1444:1 1868:1 2313:1 2324:1 3524:1 3681:1 
0.08647385852527939 711:1 2165:1 3502:1 
0.2172949761153615 273:1 566:1 830:1 1949:1 
0.04495899165347474 116:1 1825:1 2384:1 2575:1 2964:1 2985:1 3052:1 
0.1053129851212986 192:1 218:1 361:1 824:1 890:1 1060:1 1191:1 1256:1 1949:1 1988:2 2142:1 2272:1 3293:1 3600:1 3844:1 3862:1 
0.06434060531893847 462:1 850:1 2272:1 
0.00783294859968935 78:1 133:1 646:1 1482:1 2403:1 2594:1 3927:1 
0.0009887265746140056 2213:1 2444:1 2469:1 3133:1 3323:1 
0.0323697492770866 940:1 1066:1 1334:1 2210:1 2689:1 
0.0130314704973354 60:1 244:2 321:1 354:2 940:1 981:1 1155:1 1521:1 1756:1 2043:2 2073:1 2488:2 2847:1 3261:1 3339:1 3527:1 
0.08810169451039945 803:1 879:1 1399:1 1424:1 1949:1 1988:1 3528:1 
0.08543106617560485 77:1 208:1 1549:1 2519:1 2847:1 3780:1 
0.02765880811186873 1532:1 2485:1 2698:1 2821:1 3100:1 
0.01784112141836986 1848:1 2043:1 2486:1 3077:1 3695:1 3947:1 
0.1507480836432958 1397:2 1782:1 2058:1 2565:1 2847:1 3770:3 
0.1885428573762645 802:1 3780:1 
0.1510851225763386 1132:1 1623:1 1988:1 2043:1 2488:1 3524:1 3804:1 
0.0339595243139536 697:1 1491:1 2082:1 2202:1 2384:1 3001:1 3599:1 3793:1 3943:1 
0.01309978490223485 219:1 1493:1 1766:1 2061:1 3715:1 
0.01894458905409615 1274:1 3647:1 
0.1938387289026259 1163:1 1283:1 1399:1 1988:1 2488:2 2847:1 3440:1 3742:1 
0.03774437286361519 2188:1 3599:1 
0.0004997523749821209 1334:1 2489:1 2652:1 3778:1 
0.08382215108881351 173:1 643:1 646:1 792:1 823:1 824:1 889:1 1397:1 1463:1 1782:2 1784:1 1825:1 1827:1 1868:1 1949:1 2032:1 2048:1 2161:2 2665:1 2840:1 3156:1 3182:1 3524:1 3528:1 3762:4 3806:1 
0.02839031268243716 1868:2 1904:1 1949:1 2847:1 
0.003647487208983946 652:1 1076:1 1792:1 2566:1 2924:1 3019:1 3625:1 
0.003137202157644378 890:1 1358:1 1584:1 1738:1 2778:1 2839:1 3715:1 3872:1 
0.00819733752613792 99:1 102:1 381:2 887:1 893:1 944:1 950:1 981:1 1193:1 1949:2 2014:1 2072:1 2180:1 2414:1 2607:1 2669:1 2713:1 3723:3 
0.008014103655379964 868:1 2032:2 2183:2 3706:1 3780:1 3809:1 3929:1 
0.01718766270353318 749:1 3033:1 3780:1 3861:3 
0.05878299538210904 28:1 1463:1 2602:1 3625:1 3869:1 
0.004512648605244573 646:2 889:1 1174:1 1348:1 1962:1 2185:1 2718:1 3869:1 
0.1022226382188198 950:1 1018:1 1374:1 1480:1 1570:1 2317:1 2430:1 3551:2 3647:1 3715:1 
0.03342899405580835 485:1 1370:1 1395:1 1718:1 2180:1 2629:1 3608:1 3715:1 3791:1 3810:1 3869:1 
0.01801869776189363 458:1 1463:1 1638:1 1969:1 2050:1 2082:1 2097:1 2602:1 3457:1 
0.179674361625396 1915:1 2486:1 3291:1 3929:1 
0.09141536725163617 420:1 1374:1 1661:1 1851:1 1988:1 2384:1 2680:1 
0.03960500020447486 822:1 950:1 1010:1 1473:1 1482:1 2007:1 3929:1 
0.009232593299757588 473:1 824:1 950:1 955:1 1208:1 1397:2 1451:1 1661:1 1782:1 1825:1 1868:2 2565:1 2713:1 2892:1 3040:1 3548:1 3770:1 3793:1 
0.021873178751397 326:1 893:1 1658:1 2172:1 2200:1 3344:1 3486:1 3551:1 3821:1 
0.0007918432372567986 358:3 505:1 525:1 1070:1 1168:1 1711:1 1825:1 1868:1 2007:2 2839:2 2860:1 3192:1 3596:1 3620:1 3742:1 
0.09394187576095799 1334:1 1949:1 3659:1 
0.0187034543474454 1397:1 1788:1 1949:2 2062:1 
0.06869919007610444 60:1 544:1 711:1 1369:1 1661:1 3715:1 
0.005097039902916809 25:1 1198:1 1334:1 1336:1 1360:1 1369:1 1576:1 1949:1 2460:1 2518:1 2570:1 2995:1 3344:1 3543:1 3935:1 
0.009673857589786165 60:1 145:2 647:1 654:1 2007:1 3703:1 3753:1 
0.07423325045908955 322:1 974:1 1374:1 1482:1 2575:1 3159:1 
0.02889472523175652 1140:1 1399:1 1478:1 1489:1 1988:1 
0.0005786576792392236 889:1 1970:1 2491:1 3524:1 
0.02028109965476941 664:1 1817:1 2002:1 2926:1 
0.1632405573585317 491:1 941:1 1520:1 1733:1 2383:1 3421:1 
0.000367962282654657 227:1 289:1 1424:1 1496:1 1988:1 2316:1 2852:1 
0.01095336281032787 335:1 2502:1 2920:1 
0.02191062602000624 542:1 889:1 1187:1 1980:1 3560:1 3742:1 3793:1 3815:1 
0.01764457438025855 1232:1 1334:1 1933:1 1949:1 2652:1 
0.06534782693845748 50:1 216:1 1825:1 1853:1 1965:1 
0.01859964629349591 447:1 2050:1 2530:1 3855:1 
0.04710978212361525 669:1 1334:1 1616:1 1631:1 1931:1 2043:1 2209:1 2652:1 2829:1 3169:1 
0.06306991944966137 586:1 669:1 1334:1 2269:1 
0.1375920672120731 938:1 1541:1 1546:1 2082:1 2804:1 2913:1 2959:1 3092:1 3223:1 3224:1 
0.04019115325443617 301:1 1227:1 1334:1 1399:1 2099:1 2694:1 3381:1 
0.07653993189246859 1374:1 1486:1 1766:1 2213:1 3068:1 3770:1 3780:1 
0.04523484911012535 218:3 711:1 727:1 1184:1 1313:1 1405:1 1489:1 1949:2 1988:1 2003:1 2217:1 2772:1 3213:1 3227:1 3742:1 3755:1 
0.01425552219269387 502:1 1326:1 1482:1 1661:1 1854:1 1882:1 2054:2 2235:1 2690:1 3100:1 3327:1 3647:1 3742:1 
0.1190077936399 123:1 171:1 1491:1 1493:1 2099:1 2973:1 3528:1 3732:1 
0.07609192690931388 38:1 141:1 960:1 1132:1 1522:1 1853:3 1854:1 1868:2 2082:2 2580:1 2590:1 3126:1 3522:1 
0.01331428115548151 978:1 1127:1 1868:1 2551:1 2698:1 3625:1 
0.05226853889395016 684:1 1193:1 2718:1 3267:1 3393:1 
0.07574147356933947 218:1 727:1 1223:1 1463:1 
0.08048009691632886 280:1 1868:1 1980:1 3297:1 3457:1 3836:1 
0.2112668473060606 3353:1 3477:1 3793:1 
0.1047376927323323 83:1 887:1 1316:1 1868:1 1980:1 2473:1 3815:1 
0.04519240210035765 954:1 991:1 1867:1 1988:1 2486:1 
0.05574013858284015 115:1 1033:1 1405:1 1732:1 2111:1 2112:1 2192:1 2290:1 2460:2 2486:1 2519:1 2718:1 2798:1 3089:1 3203:1 3267:1 3715:1 3913:1 
0.0321975039953649 280:1 429:1 1949:1 1980:1 2323:1 2975:1 3297:1 3892:1 
0.04044581629818852 102:1 218:1 752:1 893:1 1150:1 1944:1 2290:1 2377:1 2576:1 3072:1 3214:1 3267:1 3380:1 3775:1 3905:1 
0.09622901530260387 4:1 171:1 193:1 1617:1 1661:1 1766:1 2311:1 2470:1 2485:1 2860:1 3068:1 3296:1 3524:1 3658:1 
0.02733828696495109 187:1 1388:1 
0.01303572590496548 1025:1 1553:1 1847:1 2068:1 3063:1 3872:1 
0.1896246861707955 1349:1 2840:1 
0.009175174655027749 71:2 123:1 544:2 585:1 801:1 835:1 930:1 1232:1 1254:1 1281:1 1348:1 1399:1 1847:1 1880:1 2003:1 2128:1 2164:1 2290:1 2628:1 2669:1 3251:1 3544:1 3578:1 3673:5 3955:1 
0.04522049078924854 119:1 1307:1 1934:1 2007:1 3169:1 
0.0164995416787937 692:1 1334:1 1405:1 2460:1 2652:1 2849:1 3780:1 
0.01630581150032626 993:1 1137:1 1156:1 1316:1 1579:1 2059:1 2579:1 2723:1 2768:1 3171:1 3379:1 3522:1 
0.02258715826093521 229:1 1486:1 1990:1 2537:1 3154:1 
0.1222332121249197 384:1 1626:1 2486:1 2602:1 
0.02783612246216441 149:1 950:1 1141:1 1374:1 1486:1 1493:1 1535:1 1782:1 1785:1 1825:1 1868:2 2217:1 2273:1 2602:1 2715:1 2734:1 2885:1 3380:1 3417:1 
0.06000170807263425 1542:1 2003:1 3505:1 3741:1 3830:1 
0.0795471661685294 556:1 597:1 950:1 1451:1 1775:1 1868:1 2032:1 2183:1 2602:1 3751:1 3780:1 3929:1 
0.09618156568203685 566:1 656:1 1110:2 1148:1 1468:1 2430:1 2895:1 3554:1 3741:1 3770:1 3793:1 3884:1 
0.020121018188595 275:1 1868:1 2074:1 2143:1 2836:1 3029:1 3100:1 3266:1 3449:1 3780:1 
0.02441163799185349 70:1 140:1 218:1 544:2 580:1 1030:1 1280:1 1333:1 1463:1 1933:1 1949:1 2618:1 2689:1 2694:1 2920:1 3421:1 3577:1 3732:1 3884:1 3892:1 3896:1 3901:1 
0.07437600638796929 289:1 321:1 646:1 893:1 938:1 1408:1 1949:1 1965:1 2099:1 2239:1 2847:1 3524:1 3780:2 3884:1 
0.03311924378225824 449:1 983:1 3577:1 
0.2410724959915891 377:1 3388:1 
0.03104064500444542 954:1 1137:1 1920:1 3486:1 3849:1 
1 216:1 237:1 342:2 471:1 476:1 486:1 646:1 869:1 1005:1 1104:1 1160:1 1269:1 1440:1 1553:1 1584:1 1617:1 1822:1 1874:1 1966:1 1994:1 2772:1 3028:1 3040:1 3041:1 3098:1 3139:1 3145:1 3152:1 3180:2 3338:1 3381:1 3568:2 3577:1 3615:1 3770:1 3937:1 
0.01338960963522224 285:1 321:1 1084:2 1463:1 1546:1 1591:1 1868:1 1949:1 1963:1 2993:1 3029:1 3261:1 3327:2 3422:1 3869:1 3927:1 
0.01669848863241777 967:2 1299:1 1334:1 1542:1 1619:1 3001:1 3150:1 3566:1 3715:1 
0.1775939931072365 950:1 2038:1 3076:1 3157:1 
0.04736663204762159 1018:1 1304:1 2430:1 2770:1 
0.0004810453225779204 224:1 295:1 938:1 1060:1 1130:1 1437:1 1485:1 1518:1 1546:1 1646:1 1867:1 1933:1 1949:1 2025:2 2174:1 2377:1 2627:2 2644:1 2698:2 2707:1 2734:1 3327:1 3715:2 3948:1 
0.01773753440040616 60:1 151:1 1118:1 1146:1 1193:1 1255:1 1299:1 1334:1 1673:1 1721:1 1825:1 1868:1 1988:2 2043:1 2253:1 2317:1 2318:1 2388:1 2602:1 2609:1 2652:1 2669:2 2734:1 2942:1 3077:1 3268:1 3421:1 3501:1 3505:1 3517:1 3715:1 3722:1 3742:1 3799:1 3882:1 
0.03014298288258263 1264:1 1856:1 2217:1 
0.1249203388571479 2069:1 3505:1 
0.05499472698771459 57:1 59:1 462:1 1267:1 2110:1 2606:1 2895:1 3742:1 3809:1 
0.03023082946060699 93:1 165:1 301:1 366:1 765:1 944:1 947:1 1542:1 2180:1 2272:1 2579:1 2602:2 2630:1 3292:1 3799:1 3831:1 
0.07987081982517151 93:1 2840:1 3137:1 
0.0739193746531831 88:1 119:1 169:1 403:1 572:1 991:1 1316:1 1473:1 1504:1 1949:1 1980:1 3029:1 3109:1 3907:1 
0.02476221287309321 974:1 1248:2 1527:1 1868:1 2629:2 2869:2 3780:2 
0.1280481521085634 1546:1 2945:1 3524:1 
0.06265832674507378 182:1 239:1 279:1 352:2 478:1 1267:1 1617:1 2267:1 2363:1 2415:1 2548:1 2561:1 2857:1 2970:1 3210:1 
0.02707657383581012 119:1 2861:1 3850:1 
0.02782697942605293 308:1 725:1 876:2 2846:1 3148:1 
0.1468654964831896 479:1 1261:1 2313:1 2602:1 3492:1 3560:1 3625:1 3742:1 
0.005494428610981696 522:1 2032:1 2183:1 3182:1 3929:1 
0.004086249381434932 711:1 877:1 1334:1 1756:1 1868:1 2074:1 2530:2 2750:1 2847:1 3377:3 3388:1 3742:1 3778:1 
0.001413816955010135 1324:1 1328:2 1340:2 1724:1 1949:1 2007:1 3327:1 
0.1789230969624466 654:1 1386:1 2837:1 3048:1 3505:1 
0.01672420513273002 27:1 28:1 321:1 424:1 708:1 1150:1 1399:1 1558:1 1803:1 2050:1 3177:1 3455:1 3584:1 3742:1 
0.006592836289740395 149:1 301:1 527:1 548:1 876:1 944:1 947:1 1690:1 1825:1 2180:1 2586:1 2637:1 3054:1 3478:1 
-1 1211:1 1473:1 3780:1 
-0.7185463476526649 1482:1 1493:1 1617:1 2666:1 3589:1 
-0.04902777873109722 296:1 556:2 654:2 824:1 889:3 1066:1 1141:3 1195:1 2384:1 2690:1 2837:2 2846:3 3194:2 3230:2 3380:1 3418:1 3571:1 3742:1 
-1 921:1 
-0.1197950494900987 646:1 739:1 752:1 1066:1 1237:1 1304:1 1643:2 1717:1 1851:1 1863:1 1945:1 2082:1 2527:1 2616:1 2841:1 2847:1 2849:1 3200:1 3395:1 3524:1 3647:2 3683:1 3943:2 
-0.2017633333209556 424:1 435:1 542:1 556:1 643:1 1316:1 2003:1 2290:1 3717:1 3947:1 
-1 684:1 3074:1 
-0.02720735526765391 13:1 142:1 434:2 735:1 769:4 788:1 799:1 1088:2 1180:1 1200:1 1347:1 1396:1 1617:1 1693:1 1703:1 1727:1 1918:1 1933:2 2040:1 2433:1 2602:1 2747:1 2947:1 2954:1 3091:1 
-0.5078467586427763 711:1 1980:1 1988:1 2043:1 2473:1 2484:1 3029:1 3157:1 3609:1 3715:1 
-0.4942703905870289 17:1 1374:1 1546:1 2110:1 2486:1 3892:1 3929:1 
-0.5571355111769295 704:1 1352:1 3268:1 3913:1 
-1 1868:1 
-1 1191:1 1546:1 2313:1 3524:1 3905:1 
-0.7875925222050584 462:1 566:1 944:1 2430:1 
-0.1502436325482482 542:1 824:1 1193:1 1661:1 1949:1 2180:1 2384:1 2786:1 3076:1 3223:1 3372:1 3383:2 3385:1 3554:1 3791:1 
-0.1800447434369384 1343:1 2351:1 2437:1 2860:3 2971:1 
-0.3301603779725615 542:1 731:1 1348:1 1825:1 2669:1 3388:1 3486:1 
-0.2401969409706757 542:1 615:1 799:1 1399:1 2209:1 3076:1 3388:1 3706:1 
-0.03444157163182194 26:1 556:1 603:1 698:1 1078:2 1542:1 1734:1 1972:1 2272:1 2412:1 2440:5 2500:1 2655:1 3383:1 3572:1 3741:1 
-0.2790839674985249 119:1 933:1 1334:1 1348:1 2098:1 2099:2 2602:1 2840:1 
-0.2940155153283375 11:1 1001:1 1334:1 1336:1 1634:1 1988:1 2491:1 2652:1 2717:1 2965:1 3169:1 3227:1 3625:1 3715:1 3742:1 
-1 239:1 1940:1 
-0.3811902218419075 1532:1 1782:1 2007:1 2690:1 2768:1 2847:1 3064:1 3109:1 3477:1 3505:1 3528:1 3770:1 
-0.2346492311662486 314:1 603:1 1170:1 1399:1 1424:1 1732:1 1868:1 2043:1 2290:1 2486:1 2602:1 2665:1 3267:1 3276:1 3327:1 3505:1 3524:1 3741:1 3742:2 3793:1 3884:1 
-1 3780:1 
-0.06371403214155086 133:1 171:1 296:1 391:1 716:1 824:1 826:1 1153:1 1374:1 1756:1 1858:1 1943:1 1965:1 2007:1 2138:1 2147:1 2545:1 2575:1 2970:1 3029:1 3267:1 3571:1 3576:1 3778:1 
-1 2007:1 2488:1 
-0.1170356946199603 296:1 544:1 1132:2 1254:1 1299:1 1539:1 1700:2 1825:1 1988:1 2115:1 2229:1 2288:2 2345:1 2819:1 3070:1 3243:1 3706:1 3886:1 
-0.1837856437125549 50:1 836:1 1463:2 1549:1 1766:1 1949:1 1988:2 2043:1 2050:1 2632:1 2680:1 2840:2 3134:1 3524:1 3588:1 3599:1 3811:1 
-0.002400487082191097 88:1 196:1 542:1 556:2 603:2 1185:1 1405:1 2359:1 2414:1 2662:2 3393:1 3540:1 3541:2 3717:1 3720:1 
-7.55812175750412e-005 643:1 1012:1 1591:1 1728:1 1988:1 2007:1 2069:1 2151:1 2602:1 2936:1 3059:1 3148:1 3182:2 3270:1 3715:2 
-0.2425600670855546 47:1 1949:1 2439:3 3551:1 3793:1 
-0.004405329106935416 542:1 556:2 835:1 1193:1 1196:1 1287:1 1337:1 1463:1 1661:1 2043:1 2718:1 2785:1 3076:1 3377:1 3417:1 3640:1 3719:1 3742:2 3780:1 3884:1 3898:1 
-0.1310802527552631 171:1 187:1 654:2 824:1 950:1 989:1 1023:1 1025:1 1287:1 1463:1 1520:1 1542:1 1616:1 1854:1 1868:1 1949:1 1965:1 2139:1 2142:1 2229:1 2424:1 2734:1 2749:1 2857:1 2926:1 2997:1 3276:1 3292:1 3323:1 3417:1 3551:1 3691:1 3742:2 3799:1 3869:1 
-1 941:1 1949:1 
-0.137188536204133 459:1 542:1 576:1 840:1 893:1 1256:2 1478:1 1949:1 2591:1 3659:1 3789:1 3935:1 
-0.1659228135037023 643:1 1012:1 1591:1 1728:1 1988:1 2007:1 2069:1 2151:1 2602:1 2936:1 3059:1 3148:1 3182:2 3270:1 3715:2 
-1 1858:1 2959:1 
-0.05984596134245565 216:1 237:1 342:2 471:1 476:1 486:1 646:1 869:1 1005:1 1104:1 1160:1 1269:1 1440:1 1553:1 1584:1 1617:1 1822:1 1874:1 1966:1 1994:1 2772:1 3028:1 3040:1 3041:1 3098:1 3139:1 3145:1 3152:1 3180:2 3338:1 3381:1 3568:2 3577:1 3615:1 3770:1 3937:1 
-0.3277435689000812 586:1 1486:1 1524:1 1857:1 1995:1 2336:1 2905:1 
-0.5010794579568233 1151:1 1397:1 1640:1 1853:1 3325:1 3810:1 3836:1 
-0.1138001125048711 49:2 88:1 219:1 556:1 950:1 1023:1 1066:1 1202:1 1399:1 1463:2 1504:1 1549:1 2082:2 2334:1 2356:1 2393:1 2412:1 2852:1 3089:1 3524:1 3577:1 
-0.1314747863070245 171:1 338:1 542:1 654:1 1386:3 1549:1 1918:1 2007:1 3353:1 3505:1 3538:1 3551:1 
-1 216:1 237:1 342:2 471:1 476:1 486:1 646:1 869:1 1005:1 1104:1 1160:1 1269:1 1440:1 1553:1 1584:1 1617:1 1822:1 1874:1 1966:1 1994:1 2772:1 3028:1 3040:1 3041:1 3098:1 3139:1 3145:1 3152:1 3180:2 3338:1 3381:1 3568:2 3577:1 3615:1 3770:1 3937:1 
-0.1568503667308396 215:1 296:1 1208:1 1491:1 1782:2 2043:1 2048:1 2161:1 2341:1 2565:2 3417:1 
-0.5679342493124495 33:1 145:1 218:1 1264:1 2794:1 3455:1 
-0.1387548098828011 215:1 403:1 1782:1 1828:1 1931:1 2007:1 2348:1 2565:1 2920:1 2954:1 3313:1 3882:1 
-0.4948719246177455 116:1 556:1 2665:1 3640:1 
